
\data\
ngram 1=9609
ngram 2=73248
ngram 3=0

\1-grams:
-3.982633	"	-0.3987933
-3.982633	&	-0.1789399
-3.982633	&c	-1.786305
-3.982633	&e	-0.1789399
-3.982633	(	-0.5050492
-3.982633	)	-0.6860616
-3.982633	,	-1.129697
-3.982633	.	-3.751696
-3.982633	000	-0.3409516
-3.982633	1	-0.1788947
-3.982633	1/229th	-0.1789399
-3.982633	1/352nd	-0.1789399
-3.982633	10/100	-0.1789399
-3.982633	100	-0.1788043
-3.982633	1000	-0.1788947
-3.982633	11	-0.1789399
-3.982633	1100	-0.1789399
-3.982633	112	-0.1789399
-3.982633	12	-0.1788043
-3.982633	13	-0.1788947
-3.982633	137	-0.1789399
-3.982633	139	-0.1789399
-3.982633	14	-0.1788947
-3.982633	14/100	-0.1788947
-3.982633	140	-0.1789399
-3.982633	1400	-0.1789399
-3.982633	150	-0.1789399
-3.982633	154	-0.1789399
-3.982633	160	-0.1789399
-3.982633	1600	-0.1789399
-3.982633	162	-0.1788947
-3.982633	1747	-0.1789399
-3.982633	18	-0.3931739
-3.982633	18/94	-0.1789399
-3.982633	18/98ths	-0.1789399
-3.982633	182	-0.1789399
-3.982633	1837	-0.1789399
-3.982633	1839	-0.1789399
-3.982633	1844	-0.1788043
-3.982633	1845	-0.5305604
-3.982633	1853	-0.1789399
-3.982633	1854	-0.1789399
-3.982633	1858	-0.1789399
-3.982633	1859	-0.1788947
-3.982633	1860	-0.1789399
-3.982633	1867	-0.1788947
-3.982633	188	-0.1789399
-3.982633	19	-0.1788947
-3.982633	190	-0.1789399
-3.982633	2	-0.4839618
-3.982633	20	-0.1788947
-3.982633	200	-0.1788947
-3.982633	2048	-0.1789399
-3.982633	21	-0.1789399
-3.982633	23	-0.1789399
-3.982633	230	-0.1789399
-3.982633	2300	-0.1789399
-3.982633	233	-0.1789399
-3.982633	240	-0.1789399
-3.982633	249	-0.1789399
-3.982633	25	-0.1788947
-3.982633	251	-0.1789399
-3.982633	260	-0.1788947
-3.982633	27	-0.1789399
-3.982633	28	-0.80371
-3.982633	280	-0.1789399
-3.982633	290	-0.1789399
-3.982633	295	-0.1789399
-3.982633	3	-0.1789399
-3.982633	30	-0.1788043
-3.982633	300	-0.2728883
-3.982633	3000	-0.1788947
-3.982633	33	-0.1789399
-3.982633	35	-0.1788495
-3.982633	357	-0.1789399
-3.982633	36	-0.1789399
-3.982633	37	-0.1789399
-3.982633	370	-0.1789399
-3.982633	4	-0.1789399
-3.982633	40	-0.1789399
-3.982633	400	-0.1788947
-3.982633	41	-0.1789399
-3.982633	41421	-0.1789399
-3.982633	42	-0.1789399
-3.982633	46	-0.1788947
-3.982633	4th	-0.1789399
-3.982633	5	-0.1788947
-3.982633	50	-0.1788495
-3.982633	500	-0.2728883
-3.982633	53	-0.1789399
-3.982633	537	-0.1789399
-3.982633	550	-0.1789399
-3.982633	57	-0.3931739
-3.982633	584	-0.1789399
-3.982633	6	-0.1788947
-3.982633	60	-0.1788495
-3.982633	600	-0.3094232
-3.982633	63	-0.1788947
-3.982633	63/4	-0.1789399
-3.982633	64	-0.1789399
-3.982633	64/87	-0.1789399
-3.982633	66	-0.1789399
-3.982633	660	-0.1789399
-3.982633	67	-0.1789399
-3.982633	7	-0.1788947
-3.982633	70	-0.1789399
-3.982633	700	-0.1789399
-3.982633	72	-0.1789399
-3.982633	740	-0.1789399
-3.982633	750	-0.1789399
-3.982633	764	-0.1789399
-3.982633	78	-0.1789399
-3.982633	780	-0.1789399
-3.982633	82	-0.1789399
-3.982633	83	-0.1789399
-3.982633	847	-0.1789399
-3.982633	85	-0.1789399
-3.982633	86	-0.1789399
-3.982633	87	-0.1789399
-3.982633	9	-0.1788947
-3.982633	90	-0.2523357
-3.982633	900	-0.3931739
-3.982633	924	-0.1789399
-3.982633	93	-0.1789399
-3.982633	94	-0.1788947
-3.982633	960	-0.1789399
-3.982633	98	-0.1788947
-3.982633	99	-0.1789399
-3.982633	:	-0.6642971
-3.982633	;	-1.438262
-3.982633	</s>
-99	<s>	-0.9728979
-3.982633	?	-0.5275649
-3.982633	A	-0.4452306
-3.982633	ABERRANT	-0.1789399
-3.982633	ABERRATION	-0.1789399
-3.982633	ABNORMAL	-0.1789399
-3.982633	ABORTED	-0.1789399
-3.982633	AEgyptian	-0.1789399
-3.982633	AFFINITIES	-0.1789399
-3.982633	ALBINISM	-0.1789399
-3.982633	ALGAE	-0.1789399
-3.982633	ALTERNATION	-0.1789399
-3.982633	AMMONITES	-0.1789399
-3.982633	ANALOGY	-0.1789399
-3.982633	AND	-0.1789399
-3.982633	ANIMALCULE	-0.1789399
-3.982633	ANIMALS	-0.3931739
-3.982633	ANNELIDS	-0.1789399
-3.982633	ANTENNAE	-0.1789399
-3.982633	ANTHERS	-0.1789399
-3.982633	APLACENTALIA	-0.1789399
-3.982633	APLACENTATA	-0.1789399
-3.982633	ARCHETYPAL	-0.1789399
-3.982633	ARTICULATA	-0.1789399
-3.982633	AS	-0.1788947
-3.982633	ASYMMETRICAL	-0.1789399
-3.982633	ATROPHIED	-0.1789399
-3.982633	Aborted	-0.1789399
-3.982633	About	-0.1789399
-3.982633	Absence	-0.3094232
-3.982633	Abstract	-0.1789399
-3.982633	Abyssinia	-0.4126566
-3.982633	Acaridae	-0.1789399
-3.982633	Acclimatisation	-0.1789399
-3.982633	According	-1.041348
-3.982633	Accordingly	-0.1789399
-3.982633	Action	-0.3931739
-3.982633	Adapted	-0.3931739
-3.982633	Admitting	-0.1789399
-3.982633	Adolf	-0.1789399
-3.982633	Adoxa	-0.1789399
-3.982633	Aerating	-0.1789399
-3.982633	Affinities	-0.1788947
-3.982633	Africa	-0.5595019
-3.982633	African	-0.1787591
-3.982633	After	-0.2389116
-3.982633	Afterwards	-0.3094232
-3.982633	Again	-1.521317
-3.982633	Agassiz	-0.5191622
-3.982633	Agassiz's	-0.1789399
-3.982633	Aix	-0.1789399
-3.982633	Akber	-0.1789399
-3.982633	Albinism	-0.1789399
-3.982633	Albinos	-0.1789399
-3.982633	Alexander	-0.1789399
-3.982633	Algae	-0.1788947
-3.982633	Alisima	-0.1789399
-3.982633	All	-0.371365
-3.982633	Allied	-0.1789399
-3.982633	Almost	-0.4126566
-3.982633	Along	-0.3094232
-3.982633	Alph	-1.113898
-3.982633	Alphonse	-0.1789399
-3.982633	Alpine	-0.328557
-3.982633	Alps	-0.1788947
-3.982633	Alternate	-0.1789399
-3.982633	Although	-0.3369575
-3.982633	Altogether	-0.1788043
-3.982633	Amazon	-0.1789399
-3.982633	Amazons	-0.1788947
-3.982633	Amblyopsis	-0.1789399
-3.982633	America	-0.738144
-3.982633	American	-0.3293767
-3.982633	Amongst	-0.1787138
-3.982633	Amphioxus	-0.1789399
-3.982633	An	-0.5925033
-3.982633	Anagallis	-0.1789399
-3.982633	Analogical	-0.1789399
-3.982633	Analogous	-0.3931739
-3.982633	Analogy	-0.1788947
-3.982633	Ancestor	-0.1789399
-3.982633	Ancient	-0.1789399
-3.982633	Ancon	-0.1789399
-3.982633	Ancylus	-0.1789399
-3.982633	And	-0.5849525
-3.982633	Andaman	-0.1788947
-3.982633	Andean	-0.1789399
-3.982633	Andrew	-0.3931739
-3.982633	Anglesea	-0.1788947
-3.982633	Animals	-0.1788043
-3.982633	Annual	-0.1789399
-3.982633	Anomma	-0.1789399
-3.982633	Anophthaimus	-0.1789399
-3.982633	Another	-0.2880625
-3.982633	Antarctic	-0.1788495
-3.982633	Antechinus	-0.1789399
-3.982633	Antirrhinideae	-0.1789399
-3.982633	Ants	-0.1789399
-3.982633	Any	-0.3215913
-3.982633	Aphides	-0.1789399
-3.982633	Aphis	-0.1789399
-3.982633	Aplacental	-0.1788947
-3.982633	Appearance	-0.3931739
-3.982633	Apteryx	-0.1788947
-3.982633	Arabian	-0.1789399
-3.982633	Arabs	-0.1789399
-3.982633	Aralo	-0.1789399
-3.982633	Archeopteryx	-0.3931739
-3.982633	Archetype	-0.1789399
-3.982633	Archipelago	-0.7748578
-3.982633	Archipelagoes	-0.1788947
-3.982633	Arctic	-0.3094232
-3.982633	Areas	-0.1789399
-3.982633	Arrested	-0.1789399
-3.982633	Art	-0.1789399
-3.982633	Articulata	-0.3547158
-3.982633	As	-0.5705458
-3.982633	Asa	-1.220287
-3.982633	Ascension	-0.1789399
-3.982633	Asclepias	-0.1789399
-3.982633	Asiatic	-0.1788495
-3.982633	Ask	-0.1789399
-3.982633	Aspicarpa	-0.1789399
-3.982633	Assuming	-0.1789399
-3.982633	Assuredly	-0.1788947
-3.982633	At	-0.4068462
-3.982633	Ateuchus	-0.3931739
-3.982633	Atlantic	-0.372928
-3.982633	Atlas	-0.1788947
-3.982633	Atrophied	-0.1789399
-3.982633	Attica	-0.1789399
-3.982633	Aucapitaine	-0.1788947
-3.982633	Auckland	-0.1788947
-3.982633	Audubon	-0.3094232
-3.982633	August	-0.3931739
-3.982633	Auguste	-0.3931739
-3.982633	Austen	-0.1789399
-3.982633	Australia	-0.6803558
-3.982633	Australian	-0.3175426
-3.982633	Authors	-0.1788495
-3.982633	Aylesbury	-0.1789399
-3.982633	Azara	-0.1788947
-3.982633	Azores	-0.4126566
-3.982633	B	-0.5007948
-3.982633	BALANUS	-0.1789399
-3.982633	BATRACRIANS	-0.1789399
-3.982633	BEFORE	-0.1788947
-3.982633	BEINGS	-0.1788947
-3.982633	BIRDS	-0.1789399
-3.982633	BOULDERS	-0.1789399
-3.982633	BRACHIOPODA	-0.1789399
-3.982633	BRANCHIAE	-0.1789399
-3.982633	BRANCHIAL	-0.1789399
-3.982633	Babington	-0.1789399
-3.982633	Backward	-0.1789399
-3.982633	Baer	-0.1788947
-3.982633	Baer's	-0.1789399
-3.982633	Baker	-0.1789399
-3.982633	Bakewell	-0.1788947
-3.982633	Bakewell's	-0.1789399
-3.982633	Balaenoptera	-0.4126566
-3.982633	Balanidae	-0.1789399
-3.982633	Balanus	-0.1789399
-3.982633	Baltic	-0.1789399
-3.982633	Baron	-0.1789399
-3.982633	Barrande	-0.377272
-3.982633	Bartlett	-0.3931739
-3.982633	Bates	-0.3433167
-3.982633	Bathyscia	-0.1789399
-3.982633	Batrachians	-0.1789399
-3.982633	Bats	-0.1788495
-3.982633	Battle	-0.1789399
-3.982633	Beagle	-0.1788947
-3.982633	Bearing	-0.1788495
-3.982633	Beaumont	-0.1789399
-3.982633	Beauty	-0.1789399
-3.982633	Bee	-0.1789399
-3.982633	Bees	-0.1788947
-3.982633	Before	-0.1788043
-3.982633	Being	-0.1788947
-3.982633	Beings	-0.1788947
-3.982633	Belgian	-0.3931739
-3.982633	Belgium	-0.1789399
-3.982633	Believing	-0.1788947
-3.982633	Belonging	-0.1789399
-3.982633	Bentham	-0.1788947
-3.982633	Berkeley's	-0.1789399
-3.982633	Bermuda	-0.4126566
-3.982633	Besides	-0.3094232
-3.982633	Between	-0.1789399
-3.982633	Beyond	-0.5305604
-3.982633	Birch	-0.1789399
-3.982633	Birds	-0.1789399
-3.982633	Bivalve	-0.1789399
-3.982633	Blenheim	-0.1789399
-3.982633	Blyth	-0.2523357
-3.982633	Bohemia	-0.1789399
-3.982633	Bombyx	-0.1789399
-3.982633	Bonin	-0.1789399
-3.982633	Borneo	-0.1788947
-3.982633	Borrow	-0.1789399
-3.982633	Bory	-0.1789399
-3.982633	Bos	-0.1789399
-3.982633	Bosquet	-0.1789399
-3.982633	Both	-0.2391378
-3.982633	Boue	-0.1789399
-3.982633	Braun	-0.1789399
-3.982633	Brazil	-0.5259889
-3.982633	Brazilian	-0.3931739
-3.982633	Breeders	-0.1788495
-3.982633	Breeds	-0.1789399
-3.982633	Brehm	-0.1789399
-3.982633	Brent	-0.1789399
-3.982633	Brighton	-0.1789399
-3.982633	Britain	-0.4563257
-3.982633	Britain!	-0.1789399
-3.982633	British	-0.1974245
-3.982633	Broca	-0.1789399
-3.982633	Bronn	-0.2299359
-3.982633	Brown	-0.1788495
-3.982633	Bruce's	-0.1789399
-3.982633	Buckland	-0.1789399
-3.982633	Buckley	-0.1789399
-3.982633	Bud	-0.1789399
-3.982633	Burgess	-0.1789399
-3.982633	Busk	-0.4126566
-3.982633	But	-0.7752373
-3.982633	Buzareingues	-0.1789399
-3.982633	By	-0.358089
-3.982633	C	-1.315701
-3.982633	CAMBRIAN	-0.1789399
-3.982633	CANIDAE	-0.1789399
-3.982633	CARAPACE	-0.1789399
-3.982633	CARBONIFEROUS	-0.1789399
-3.982633	CAUDAL	-0.1789399
-3.982633	CEPHALOPODS	-0.1789399
-3.982633	CETACEA	-0.1789399
-3.982633	CHAPTER	-0.1783065
-3.982633	CHELONIA	-0.1789399
-3.982633	CIRRIPEDES	-0.1789399
-3.982633	COCCUS	-0.1789399
-3.982633	COCOON	-0.1789399
-3.982633	COELOSPERMOUS	-0.1789399
-3.982633	COLEOPTERA	-0.1789399
-3.982633	COLUMN	-0.1789399
-3.982633	COMPOSITAE	-0.1789399
-3.982633	COMPOSITOUS	-0.1789399
-3.982633	CONCLUSION	-0.1789399
-3.982633	CONFERVAE	-0.1789399
-3.982633	CONGLOMERATE	-0.1789399
-3.982633	CORD	-0.1789399
-3.982633	COROLLA	-0.1789399
-3.982633	CORRELATION	-0.1789399
-3.982633	CORYMB	-0.1789399
-3.982633	COTYLEDONS	-0.1789399
-3.982633	CRUSTACEANS	-0.1789399
-3.982633	CURCULIO	-0.1789399
-3.982633	CUTANEOUS	-0.1789399
-3.982633	Caccabis	-0.1789399
-3.982633	Calceolaria	-0.1788947
-3.982633	Caledonia	-0.3094232
-3.982633	Call	-0.1789399
-3.982633	Cambrian	-0.5143016
-3.982633	Cambridge	-0.1788947
-3.982633	Cameroon	-0.1789399
-3.982633	Campbell	-0.1789399
-3.982633	Can	-0.372928
-3.982633	Canada	-0.3094232
-3.982633	Canaries	-0.1788947
-3.982633	Candolle	-0.4835249
-3.982633	Candolle's	-0.1789399
-3.982633	Canidae	-0.1788495
-3.982633	Cannot	-0.1789399
-3.982633	Capable	-0.1789399
-3.982633	Cape	-0.6183344
-3.982633	Capt	-0.1789399
-3.982633	Captain	-0.1789399
-3.982633	Caraccas	-0.1789399
-3.982633	Carniola	-0.1788947
-3.982633	Caroline	-0.1789399
-3.982633	Carpenter	-0.1789399
-3.982633	Carthamus	-0.1789399
-3.982633	Cases	-0.1788947
-3.982633	Caspian	-0.1789399
-3.982633	Catalogue	-0.1788947
-3.982633	Catasetum	-0.3931739
-3.982633	Catskill	-0.1789399
-3.982633	Causes	-0.3931739
-3.982633	Cautley's	-0.1789399
-3.982633	Cecidomyia	-0.1788495
-3.982633	Celebes	-0.1789399
-3.982633	Cell	-0.1789399
-3.982633	Central	-0.1789399
-3.982633	Centres	-0.1789399
-3.982633	Cephalopoda	-0.1788947
-3.982633	Cercopithecus	-0.1789399
-3.982633	Cereopithecus	-0.1789399
-3.982633	Ceroxylus	-0.1788947
-3.982633	Certain	-0.2391378
-3.982633	Certainly	-0.1789399
-3.982633	Cervulus	-0.1789399
-3.982633	Cetacea	-0.1789399
-3.982633	Ceylon	-0.1788495
-3.982633	Chalk	-0.3093328
-3.982633	Change	-0.1788947
-3.982633	Changed	-0.3094232
-3.982633	Changes	-0.6116582
-3.982633	Channel	-0.1789399
-3.982633	Chapter	-0.1788947
-3.982633	Chapters	-0.1788947
-3.982633	Character	-0.2231476
-3.982633	Characters	-0.1788043
-3.982633	Charles	-0.4467416
-3.982633	Charles's	-0.1788947
-3.982633	Chatham	-0.3094232
-3.982633	Chauncey	-0.3931739
-3.982633	Checks	-0.1789399
-3.982633	Chenalopex	-0.1789399
-3.982633	Chile	-0.1789399
-3.982633	Chili	-0.1789399
-3.982633	China	-0.1788947
-3.982633	Chinese	-0.1788495
-3.982633	Chironomus	-0.1788495
-3.982633	Chirurgical	-0.1789399
-3.982633	Chloeon	-0.1789399
-3.982633	Chthamalinae	-0.1789399
-3.982633	Chthamalus	-0.1788947
-3.982633	Cicadae	-0.1789399
-3.982633	Circle	-0.4126566
-3.982633	Circumstances	-0.3931739
-3.982633	Cirripedes	-0.1788495
-3.982633	Claparide	-0.1789399
-3.982633	Clarke	-0.1788947
-3.982633	Classification	-0.1788495
-3.982633	Clausen	-0.1789399
-3.982633	Clift	-0.1789399
-3.982633	Climate	-0.1789399
-3.982633	Close	-0.1789399
-3.982633	Closely	-0.1788947
-3.982633	Clubs	-0.1789399
-3.982633	Cnestis	-0.1789399
-3.982633	Cobitis	-0.1789399
-3.982633	Coccidae	-0.1788947
-3.982633	Coccus	-0.1789399
-3.982633	Codlin	-0.1789399
-3.982633	Col	-0.3931739
-3.982633	Colaptes	-0.1788495
-3.982633	Collections	-0.1789399
-3.982633	Collins	-0.1789399
-3.982633	Colonel	-0.4839618
-3.982633	Colour	-0.1789399
-3.982633	Columba	-0.3931739
-3.982633	Columbidae	-0.1788947
-3.982633	Colymbetes	-0.1789399
-3.982633	Commencing	-0.1789399
-3.982633	Common	-0.1789399
-3.982633	Comorin	-0.1789399
-3.982633	Compare	-0.3931739
-3.982633	Compensation	-0.1789399
-3.982633	Complex	-0.1789399
-3.982633	Complication	-0.1789399
-3.982633	Compositae	-0.2523357
-3.982633	Compsognathus	-0.1789399
-3.982633	Conditions	-0.5305604
-3.982633	Connaraceae	-0.1789399
-3.982633	Connarus	-0.1789399
-3.982633	Consequently	-0.3512301
-3.982633	Consider	-0.1789399
-3.982633	Considering	-0.2523357
-3.982633	Consisting	-0.1789399
-3.982633	Containing	-0.1788947
-3.982633	Continent	-0.1788947
-3.982633	Continued	-0.1789399
-3.982633	Contrary	-0.1789399
-3.982633	Convergence	-0.1789399
-3.982633	Cope	-0.1788947
-3.982633	Cordillera	-0.2967178
-3.982633	Correlated	-0.3931739
-3.982633	Coryanthes	-0.1788947
-3.982633	Corydalis	-0.1789399
-3.982633	Country	-0.1789399
-3.982633	Craven	-0.1789399
-3.982633	Creation	-0.1788947
-3.982633	Creator	-0.2611951
-3.982633	Criblatores	-0.1789399
-3.982633	Crinum	-0.1788947
-3.982633	Croll	-0.4181427
-3.982633	Croll's	-0.3931739
-3.982633	Crossed	-0.1789399
-3.982633	Crosses	-0.3931739
-3.982633	Cruger	-0.2728883
-3.982633	Crustacea	-0.5682981
-3.982633	Cryptocerus	-0.1789399
-3.982633	Ctenomys	-0.1789399
-3.982633	Cuckoo	-0.1789399
-3.982633	Cunningham	-0.1789399
-3.982633	Curculio	-0.1789399
-3.982633	Cuvier	-0.2391378
-3.982633	Cyclostoma	-0.1789399
-3.982633	Cypridina	-0.1788947
-3.982633	Cypripedium	-0.1789399
-3.982633	Cypris	-0.1789399
-3.982633	Cytherea	-0.1789399
-3.982633	D	-0.4126566
-3.982633	D'Orbigny	-0.1789399
-3.982633	DEGRADATION	-0.1789399
-3.982633	DENUDATION	-0.1789399
-3.982633	DEVONIAN	-0.1789399
-3.982633	DICOTYLEDONOUS	-0.1789399
-3.982633	DICOTYLEDONS	-0.1789399
-3.982633	DIFFERENTATION	-0.1789399
-3.982633	DIFFICULTIES	-0.1789399
-3.982633	DIMORPHIC	-0.1789399
-3.982633	DIOECIOUS	-0.1789399
-3.982633	DIORITE	-0.1789399
-3.982633	DISTRIBUTION	-0.1788947
-3.982633	DOMESTICATION	-0.1789399
-3.982633	DORSAL	-0.1789399
-3.982633	Dallas	-0.1788947
-3.982633	Dana	-0.1788947
-3.982633	Dana's	-0.1789399
-3.982633	Darwin's	-0.1789399
-3.982633	Dawson	-0.1788495
-3.982633	De	-1.133137
-3.982633	Dean	-0.1789399
-3.982633	Degree	-0.1789399
-3.982633	Degrees	-0.1789399
-3.982633	Dei	-0.1789399
-3.982633	Deity	-0.1788947
-3.982633	Delicate	-0.1789399
-3.982633	Denudation	-0.1789399
-3.982633	Deposition	-0.1789399
-3.982633	Descendants	-0.1789399
-3.982633	Desertas	-0.1789399
-3.982633	Development	-0.1788947
-3.982633	Devonian	-0.1789399
-3.982633	Devonshire	-0.1788947
-3.982633	Dianthus	-0.3931739
-3.982633	Did	-0.1789399
-3.982633	Differences	-0.1788495
-3.982633	Different	-0.1789399
-3.982633	Difficulties	-0.1789399
-3.982633	Difficulty	-0.1789399
-3.982633	Dimorphism	-0.1788947
-3.982633	Dipsacus	-0.1789399
-3.982633	Dispersal	-0.1788947
-3.982633	Distinct	-0.1789399
-3.982633	Distribution	-0.3409516
-3.982633	Disuse	-0.3931286
-3.982633	Divergence	-0.80371
-3.982633	Do	-0.1789399
-3.982633	Doctrine	-0.1789399
-3.982633	Domestic	-0.3093328
-3.982633	Domesticated	-0.1788947
-3.982633	Domestication	-0.1788495
-3.982633	Dominant	-0.1789399
-3.982633	Dorking	-0.1789399
-3.982633	Doubtful	-0.1789399
-3.982633	Downing	-0.1789399
-3.982633	Dr	-1.832464
-3.982633	Drift	-0.1789399
-3.982633	Ducks	-0.1789399
-3.982633	During	-0.6190104
-3.982633	Dutch	-0.1788947
-3.982633	Dyak	-0.1789399
-3.982633	Dytiscus	-0.1789399
-3.982633	E	-1.258076
-3.982633	EDENTATA	-0.1789399
-3.982633	ELYTRA	-0.1789399
-3.982633	EMBRYO	-0.1789399
-3.982633	EMBRYOLOGY	-0.1788947
-3.982633	END	-0.3931739
-3.982633	ENDEMIC	-0.1789399
-3.982633	ENTOMOSTRACA	-0.1789399
-3.982633	EOCENE	-0.1789399
-3.982633	EPHEMEROUS	-0.1789399
-3.982633	EXISTENCE	-0.1789399
-3.982633	Each	-0.1788043
-3.982633	Earl	-0.1789399
-3.982633	Eastern	-0.1789399
-3.982633	Echinodermata	-0.1788043
-3.982633	Echinoneus	-0.1789399
-3.982633	Echinus	-0.1788495
-3.982633	Eciton	-0.1789399
-3.982633	Eclipse	-0.1789399
-3.982633	Economy	-0.1789399
-3.982633	Edentata	-0.1788043
-3.982633	Edward	-0.6116582
-3.982633	Edwards	-0.2391378
-3.982633	Effects	-0.4126566
-3.982633	Egg	-0.1789399
-3.982633	Eggs	-0.1788947
-3.982633	Egypt	-0.4126566
-3.982633	Egyptian	-0.4126566
-3.982633	Egyptians	-0.1789399
-3.982633	Either	-0.1789399
-3.982633	Elie	-0.1789399
-3.982633	Elliot	-0.1789399
-3.982633	Embryological	-0.1789399
-3.982633	Embryology	-0.1788043
-3.982633	Engidoe	-0.1789399
-3.982633	England	-0.4322809
-3.982633	English	-0.4579907
-3.982633	Eocene	-0.1788947
-3.982633	Eozoon	-0.1788495
-3.982633	Equable	-0.1789399
-3.982633	Erratic	-0.1789399
-3.982633	Eschwege	-0.1789399
-3.982633	Esquimaux	-0.1789399
-3.982633	Europaeo	-0.1789399
-3.982633	Europe	-0.8115823
-3.982633	Europe!	-0.1789399
-3.982633	European	-0.3104444
-3.982633	Europeans	-0.1789399
-3.982633	Even	-0.4292558
-3.982633	Every	-0.4181427
-3.982633	Examples	-0.7278696
-3.982633	Exceedingly	-0.1789399
-3.982633	Except	-0.1789399
-3.982633	Excessively	-0.1789399
-3.982633	Excluding	-0.1789399
-3.982633	Existence	-0.2611951
-3.982633	Explicit	-0.1789399
-3.982633	Expressions	-0.1789399
-3.982633	Extinct	-0.1788495
-3.982633	Extinction	-0.2880625
-3.982633	Eyes	-0.1789399
-3.982633	Eyton	-0.1788947
-3.982633	F	-1.179028
-3.982633	F14	-0.1788495
-3.982633	FAUNA	-0.1789399
-3.982633	FELIDAE	-0.1789399
-3.982633	FERAL	-0.1789399
-3.982633	FISHES	-0.3931739
-3.982633	FITTEST	-0.1789399
-3.982633	FLORA	-0.1789399
-3.982633	FLORETS	-0.1789399
-3.982633	FOETAL	-0.1789399
-3.982633	FOR	-0.1789399
-3.982633	FORAMINIFERA	-0.1789399
-3.982633	FORM	-0.1789399
-3.982633	FORMATIONS	-0.1789399
-3.982633	FOSSILIFEROUS	-0.1789399
-3.982633	FOSSORIAL	-0.1789399
-3.982633	FRENA	-0.1789399
-3.982633	FRENUM	-0.1789399
-3.982633	FROM	-0.1789399
-3.982633	FUNGI	-0.1789399
-3.982633	FUNGUS	-0.1789399
-3.982633	FURCULA	-0.1789399
-3.982633	Fabre	-0.3094232
-3.982633	Facility	-0.1789399
-3.982633	Facts	-0.1789399
-3.982633	Falconer	-0.372928
-3.982633	Falkland	-0.3931739
-3.982633	Falklands	-0.1789399
-3.982633	Familiarity	-0.1789399
-3.982633	Fanciers	-0.1789399
-3.982633	Far	-0.1789399
-3.982633	Farmers	-0.1789399
-3.982633	Farnham	-0.1789399
-3.982633	Faroe	-0.1788947
-3.982633	Farther	-0.1789399
-3.982633	Fear	-0.1789399
-3.982633	February	-0.1789399
-3.982633	Feeding	-0.1789399
-3.982633	Felidae	-0.1789399
-3.982633	Fernandez	-0.1789399
-3.982633	Fernando	-0.3931739
-3.982633	Fertility	-0.1789399
-3.982633	Few	-0.1788043
-3.982633	Finally	-0.9917629
-3.982633	First	-0.406004
-3.982633	Fishes	-0.1788947
-3.982633	Fittest	-0.2728883
-3.982633	Flemish	-0.1789399
-3.982633	Flora	-0.4126566
-3.982633	Flower	-0.3931286
-3.982633	Flowers	-0.1788043
-3.982633	Flysch	-0.1789399
-3.982633	Following	-0.1789399
-3.982633	For	-0.5684227
-3.982633	Foraminifera	-0.2728883
-3.982633	Forbes	-0.4074989
-3.982633	Forbes's	-0.1789399
-3.982633	Formation	-0.1789399
-3.982633	Formations	-0.1789399
-3.982633	Formica	-0.2523357
-3.982633	Forms	-0.2523357
-3.982633	Fossil	-0.1788947
-3.982633	Fossiliferous	-0.1789399
-3.982633	Fossorial	-0.1789399
-3.982633	Fourthly	-0.3931739
-3.982633	France	-0.6173333
-3.982633	Frederic	-0.1789399
-3.982633	Fresh	-0.5305604
-3.982633	Fries	-0.3931739
-3.982633	Fritz	-1.176046
-3.982633	From	-0.9296148
-3.982633	Fuchsia	-0.1789399
-3.982633	Fuci	-0.3931739
-3.982633	Fuegia	-0.1789399
-3.982633	Fuego	-0.4839618
-3.982633	Fulmar	-0.1789399
-3.982633	Fumariaceous	-0.1789399
-3.982633	Furnished	-0.1789399
-3.982633	Further	-0.1789399
-3.982633	Furthermore	-0.3931739
-3.982633	G	-0.4126566
-3.982633	GALLINACEOUS	-0.1789399
-3.982633	GALLUS	-0.1789399
-3.982633	GANGLION	-0.1789399
-3.982633	GANOID	-0.1789399
-3.982633	GENERATIONS	-0.1789399
-3.982633	GEOGRAPHICAL	-0.3931739
-3.982633	GEOLOGICAL	-0.1788947
-3.982633	GERMINAL	-0.1789399
-3.982633	GLACIAL	-0.1789399
-3.982633	GLAND	-0.1789399
-3.982633	GLOSSARY	-0.1788495
-3.982633	GLOTTIS	-0.1789399
-3.982633	GNEISS	-0.1789399
-3.982633	GRALLATORES	-0.1789399
-3.982633	GRANITE	-0.1789399
-3.982633	Galapagos	-0.9059646
-3.982633	Galaxias	-0.1789399
-3.982633	Galeopithecus	-0.1788495
-3.982633	Gallinaceae	-0.1789399
-3.982633	Gallus	-0.3094232
-3.982633	Ganoid	-0.1789399
-3.982633	Gardens	-0.1789399
-3.982633	Gardner	-0.1789399
-3.982633	Garrulus	-0.1789399
-3.982633	Gartner	-0.3721402
-3.982633	Gartner's	-0.1788947
-3.982633	Gaston	-0.1789399
-3.982633	Gaudry	-0.1789399
-3.982633	Geikie	-0.1789399
-3.982633	Genera	-0.1788043
-3.982633	Generally	-0.1788947
-3.982633	Generelle	-0.1789399
-3.982633	Generic	-0.1789399
-3.982633	Genesis	-0.1789399
-3.982633	Geoffroy	-0.5206589
-3.982633	Geographical	-0.4702552
-3.982633	Geological	-0.4702552
-3.982633	Geology	-0.2967178
-3.982633	Geometrical	-0.1789399
-3.982633	George	-0.1789399
-3.982633	German	-0.1788495
-3.982633	Germany	-0.3931739
-3.982633	Gervais	-0.1789399
-3.982633	Gills	-0.1789399
-3.982633	Girou	-0.1789399
-3.982633	Glacial	-1.033296
-3.982633	Glancing	-0.1789399
-3.982633	Glasgow	-0.1789399
-3.982633	Glossary	-0.1789399
-3.982633	Gmelin	-0.1789399
-3.982633	God	-0.1789399
-3.982633	Godwin	-0.1789399
-3.982633	Goethe	-0.1788947
-3.982633	Gomphia	-0.1789399
-3.982633	Good	-0.9218846
-3.982633	Goodwood	-0.1789399
-3.982633	Gordian	-0.1789399
-3.982633	Gosse	-0.1789399
-3.982633	Gould	-0.1788043
-3.982633	Government	-0.1789399
-3.982633	Graba	-0.1789399
-3.982633	Gradations	-0.1789399
-3.982633	Grallatores	-0.1789399
-3.982633	Granting	-0.1789399
-3.982633	Gray	-0.3650916
-3.982633	Gray's	-0.1789399
-3.982633	Great	-0.7527903
-3.982633	Greenland	-0.80371
-3.982633	Grimm	-0.1788947
-3.982633	Groups	-0.80371
-3.982633	Grouse	-0.1789399
-3.982633	Growth	-0.1788947
-3.982633	Guiana	-0.1789399
-3.982633	Guided	-0.1789399
-3.982633	Guinea	-0.3931739
-3.982633	Gulf	-0.3931739
-3.982633	Gunther	-0.5305151
-3.982633	Gymnotus	-0.1789399
-3.982633	H	-1.383015
-3.982633	HABITAT	-0.1789399
-3.982633	HAVE	-0.1789399
-3.982633	HEMIPTERA	-0.1789399
-3.982633	HERMAPHRODITE	-0.1789399
-3.982633	HOMOLOGY	-0.1789399
-3.982633	HOMOPTERA	-0.1789399
-3.982633	HYBRID	-0.1789399
-3.982633	HYBRIDISM	-0.1789399
-3.982633	HYMENOPTERA	-0.1789399
-3.982633	HYPERTROPHIED	-0.1789399
-3.982633	Haast	-0.1789399
-3.982633	Habit	-0.2299359
-3.982633	Habits	-0.1788947
-3.982633	Had	-0.2523357
-3.982633	Haeckel	-0.1789399
-3.982633	Hairless	-0.1789399
-3.982633	Halitherium	-0.1789399
-3.982633	Hamilton	-0.1789399
-3.982633	Hampshire	-0.1789399
-3.982633	Harcourt	-0.1789399
-3.982633	Hard	-0.1789399
-3.982633	Hardly	-0.1789399
-3.982633	Hartung	-0.1789399
-3.982633	Has	-0.1789399
-3.982633	Have	-0.1789399
-3.982633	Having	-0.2389116
-3.982633	He	-0.4267984
-3.982633	Hearne	-0.1789399
-3.982633	Hector	-0.1789399
-3.982633	Hedge	-0.1789399
-3.982633	Heer	-0.1789399
-3.982633	Helena	-0.1789399
-3.982633	Helianthemum	-0.1789399
-3.982633	Helix	-0.2728883
-3.982633	Helmholtz	-0.1789399
-3.982633	Helosciadium	-0.1789399
-3.982633	Hemiptera	-0.1789399
-3.982633	Hence	-0.8923101
-3.982633	Hensen's	-0.1789399
-3.982633	Henslow	-0.1789399
-3.982633	Herbert	-0.3215913
-3.982633	Herbert's	-0.1789399
-3.982633	Here	-0.3292206
-3.982633	Hereafter	-0.1789399
-3.982633	Hereford	-0.3931739
-3.982633	Heron	-0.1789399
-3.982633	Herons	-0.1789399
-3.982633	Heusinger	-0.1789399
-3.982633	Hicks	-0.1789399
-3.982633	Hieracium	-0.1789399
-3.982633	Hilaire	-0.2967178
-3.982633	Hilaire's	-0.1789399
-3.982633	Hildebrand	-0.3931739
-3.982633	Hilgendorf	-0.1789399
-3.982633	Himalaya	-0.80371
-3.982633	Himalayan	-0.1789399
-3.982633	Hipparion	-0.1788495
-3.982633	Hippeastrum	-0.3094232
-3.982633	Hippocampus	-0.1789399
-3.982633	Hippoglossus	-0.1789399
-3.982633	His	-0.1788043
-3.982633	Hive	-0.1789399
-3.982633	Hofmeister	-0.1789399
-3.982633	Holothuriae	-0.1789399
-3.982633	Homologous	-0.3931739
-3.982633	Homoplastic	-0.1789399
-3.982633	Hon	-0.5305604
-3.982633	Hoofed	-0.1789399
-3.982633	Hooker	-0.570096
-3.982633	Hooker's	-0.1789399
-3.982633	Hope	-0.372928
-3.982633	Hopkins	-0.1788947
-3.982633	Horticulturists	-0.1789399
-3.982633	How	-0.3208552
-3.982633	Huber	-0.337276
-3.982633	Huber's	-0.1789399
-3.982633	Hudson	-0.1787591
-3.982633	Humble	-0.1789399
-3.982633	Humboldt	-0.1788947
-3.982633	Hungary	-0.1789399
-3.982633	Hunter	-0.1789399
-3.982633	Hutton	-0.1788947
-3.982633	Huxley	-0.2728883
-3.982633	Hybrid	-0.1789399
-3.982633	Hybridism	-0.1788947
-3.982633	Hybrids	-0.2391378
-3.982633	Hydra	-0.1789399
-3.982633	Hydrophyllaceae	-0.1789399
-3.982633	Hymenoptera	-0.3094232
-3.982633	Hyoseris	-0.1789399
-3.982633	Hyperoodon	-0.1789399
-3.982633	I	-0.9724784
-3.982633	ICHNEUMONIDAE	-0.1789399
-3.982633	II	-0.1789399
-3.982633	III	-0.1789399
-3.982633	IMAGO	-0.1789399
-3.982633	IMPERFECTION	-0.1789399
-3.982633	IN	-0.3094232
-3.982633	INDIGENES	-0.1789399
-3.982633	INFLORESCENCE	-0.1789399
-3.982633	INFUSORIA	-0.1789399
-3.982633	INSECTIVOROUS	-0.1789399
-3.982633	INSECTS	-0.1789399
-3.982633	INSTINCT	-0.1788947
-3.982633	INVERTEBRATA	-0.1789399
-3.982633	INVERTEBRATE	-0.1789399
-3.982633	IV	-0.1789399
-3.982633	IX	-0.1789399
-3.982633	Ibla	-0.1789399
-3.982633	Ichneumonidae	-0.1789399
-3.982633	If	-0.6906174
-3.982633	Illinois	-0.1789399
-3.982633	Illustrations	-0.1789399
-3.982633	Imagine	-0.1789399
-3.982633	Imperfection	-0.1789399
-3.982633	Imperfectly	-0.1789399
-3.982633	Importance	-0.1789399
-3.982633	Important	-0.1789399
-3.982633	In	-0.7347057
-3.982633	Inasmuch	-0.1789399
-3.982633	Increase	-0.1788495
-3.982633	Indefinite	-0.1789399
-3.982633	Independently	-0.6116582
-3.982633	India	-0.5798888
-3.982633	Indian	-0.2076286
-3.982633	Indians	-0.1789399
-3.982633	Indies	-0.1789399
-3.982633	Individual	-0.1789399
-3.982633	Individuals	-0.1788495
-3.982633	Infusoria	-0.1789399
-3.982633	Inhabitants	-0.3931739
-3.982633	Inhabiting	-0.1789399
-3.982633	Inheritance	-0.1788947
-3.982633	Inherited	-0.1789399
-3.982633	Inland	-0.1789399
-3.982633	Innumerable	-0.3931739
-3.982633	Insectivora	-0.1788947
-3.982633	Insects	-0.1787138
-3.982633	Instances	-0.3094232
-3.982633	Instinct	-0.1788495
-3.982633	Instincts	-0.1788495
-3.982633	Intercrossing	-0.1788043
-3.982633	Intermediate	-0.1789399
-3.982633	Introduction	-0.1788495
-3.982633	Invertebrata	-0.1789399
-3.982633	Iowa	-0.1789399
-3.982633	Iran	-0.1789399
-3.982633	Ireland	-0.1788947
-3.982633	Is	-0.3094232
-3.982633	Isidore	-0.6116582
-3.982633	Island	-0.3093328
-3.982633	Islands	-0.3396105
-3.982633	Isolation	-0.1789399
-3.982633	It	-1.259759
-3.982633	Italian	-0.3931739
-3.982633	Italy	-0.3931739
-3.982633	Ithomia	-0.2299359
-3.982633	Its	-0.1788947
-3.982633	J	-1.079136
-3.982633	Jacobin	-0.1788947
-3.982633	Janeiro	-0.1788947
-3.982633	Japan	-0.3094232
-3.982633	Java	-0.3094232
-3.982633	Jerusalem	-0.1789399
-3.982633	John	-0.1788947
-3.982633	Johnston's	-0.1789399
-3.982633	Jointed	-0.1788947
-3.982633	Jones's	-0.1789399
-3.982633	Jourdain	-0.1789399
-3.982633	Journal	-0.1789399
-3.982633	Juan	-0.1789399
-3.982633	Judging	-0.3931739
-3.982633	Jukes	-0.1789399
-3.982633	July	-0.3931739
-3.982633	Juncus	-0.1789399
-3.982633	June	-0.1788947
-3.982633	Jurassic	-0.1789399
-3.982633	Jussieu	-0.1788495
-3.982633	Just	-0.1789399
-3.982633	K	-0.1789399
-3.982633	Kentucky	-0.1788495
-3.982633	Kerguelen	-0.3931739
-3.982633	Khan	-0.1789399
-3.982633	King	-0.1789399
-3.982633	Kirby	-0.1789399
-3.982633	Knight	-0.1788495
-3.982633	Kolreuter	-0.3474958
-3.982633	Kolreuter's	-0.1789399
-3.982633	Kreuter	-0.1789399
-3.982633	L	-0.2728883
-3.982633	LACUNAE	-0.1789399
-3.982633	LAKES	-0.1789399
-3.982633	LAMELLATED	-0.1789399
-3.982633	LARVA	-0.1789399
-3.982633	LARVAE	-0.1789399
-3.982633	LARYNX	-0.1789399
-3.982633	LAURENTIAN	-0.1789399
-3.982633	LAWS	-0.1789399
-3.982633	LEGUMINOSAE	-0.1788947
-3.982633	LEMURIDAE	-0.1789399
-3.982633	LEPIDOPTERA	-0.1789399
-3.982633	LET	-0.1789399
-3.982633	LITTORAL	-0.1789399
-3.982633	LOESS	-0.1789399
-3.982633	LONG	-0.1789399
-3.982633	La	-1.041348
-3.982633	Labrador	-0.1788947
-3.982633	Lacepide	-0.1789399
-3.982633	Lachnanthes	-0.1789399
-3.982633	Lamarck	-0.1788495
-3.982633	Land	-0.1788947
-3.982633	Landois	-0.1789399
-3.982633	Landshells	-0.1789399
-3.982633	Lankester	-0.1788495
-3.982633	Lapse	-0.3931739
-3.982633	Large	-0.1789399
-3.982633	Larger	-0.3931739
-3.982633	Larvae	-0.1789399
-3.982633	Lastly	-1.204075
-3.982633	Laurence	-0.1789399
-3.982633	Laurentian	-0.2728883
-3.982633	Law	-0.1789399
-3.982633	Laws	-0.1789399
-3.982633	Le	-0.1789399
-3.982633	Lebanon	-0.1789399
-3.982633	Leguminosae	-0.1788947
-3.982633	Leibnitz	-0.1788947
-3.982633	Leicester	-0.1789399
-3.982633	Lepidoptera	-0.1788495
-3.982633	Lepidosiren	-0.3094232
-3.982633	Lepralia	-0.1789399
-3.982633	Lepsius	-0.1789399
-3.982633	Leptalis	-0.1788947
-3.982633	Let	-0.6172832
-3.982633	Lewes	-0.3094232
-3.982633	Life	-0.2728883
-3.982633	Lighten	-0.1789399
-3.982633	Ligurian	-0.1789399
-3.982633	Like	-0.1789399
-3.982633	Limbs	-0.1789399
-3.982633	Lingula	-0.3094232
-3.982633	Linnaeus	-0.4126566
-3.982633	Linnean	-0.1789399
-3.982633	Linum	-0.1789399
-3.982633	Lithuania	-0.1789399
-3.982633	Living	-0.3094232
-3.982633	Livingstone	-0.1789399
-3.982633	Lobelia	-0.2728883
-3.982633	Local	-0.1789399
-3.982633	Lockwood	-0.1789399
-3.982633	Locusts	-0.1789399
-3.982633	Logan	-0.1788947
-3.982633	London	-0.1788947
-3.982633	Look	-1.133137
-3.982633	Looking	-0.5934014
-3.982633	Lord	-0.1788495
-3.982633	Lowe	-0.1788947
-3.982633	Lower	-0.1789399
-3.982633	Lowly	-0.1789399
-3.982633	Lubbock	-0.372928
-3.982633	Lucas	-0.1789399
-3.982633	Lucas's	-0.1789399
-3.982633	Lund	-0.1789399
-3.982633	Lyell	-0.4482538
-3.982633	Lyell's	-0.1787591
-3.982633	Lythrum	-0.1788947
-3.982633	M	-1.361683
-3.982633	MALACOSTRACA	-0.1789399
-3.982633	MAMMALIA	-0.3409516
-3.982633	MAMMIFEROUS	-0.1789399
-3.982633	MANDIBLES	-0.1789399
-3.982633	MANY	-0.1789399
-3.982633	MARSUPIALS	-0.1789399
-3.982633	MAXILLAE	-0.1789399
-3.982633	MELANISM	-0.1789399
-3.982633	MEMBRANE	-0.1789399
-3.982633	METAMORPHIC	-0.1789399
-3.982633	MISCELLANEOUS	-0.1789399
-3.982633	MM	-0.3931739
-3.982633	MOLLUSCA	-0.1789399
-3.982633	MONOCOTYLEDONOUS	-0.1789399
-3.982633	MONOCOTYLEDONS	-0.1789399
-3.982633	MORAINES	-0.1789399
-3.982633	MORPHOLOGY	-0.1788947
-3.982633	MUTUAL	-0.1789399
-3.982633	MYSIS	-0.1789399
-3.982633	Macleay	-0.1789399
-3.982633	Macrauchenia	-0.1789399
-3.982633	Madeira	-0.4819045
-3.982633	Maerauchenia	-0.1789399
-3.982633	Magellan	-0.1789399
-3.982633	Mainland	-0.1789399
-3.982633	Majesty	-0.1789399
-3.982633	Malacca	-0.1789399
-3.982633	Malay	-1.113898
-3.982633	Malayan	-0.3094232
-3.982633	Males	-0.1789399
-3.982633	Malm	-0.1787591
-3.982633	Malm's	-0.1789399
-3.982633	Malpighiaceae	-0.1788495
-3.982633	Malthus	-0.1788947
-3.982633	Mammae	-0.1789399
-3.982633	Mammalia	-0.3547158
-3.982633	Mammals	-0.1788043
-3.982633	Mammary	-0.1789399
-3.982633	Mammoth	-0.1789399
-3.982633	Man	-0.2391378
-3.982633	Man's	-0.1789399
-3.982633	Manchester	-0.1789399
-3.982633	Manipulation	-0.1789399
-3.982633	Mann	-0.1789399
-3.982633	Manual	-0.1788947
-3.982633	Many	-0.2997265
-3.982633	Marianne	-0.1789399
-3.982633	Marshall	-0.1788947
-3.982633	Martens	-0.1789399
-3.982633	Martin	-0.1789399
-3.982633	Masters	-0.1789399
-3.982633	Mastodon	-0.1788947
-3.982633	Matteucci	-0.1789399
-3.982633	Matthiola	-0.1789399
-3.982633	Maupertuis'	-0.1789399
-3.982633	Maurandia	-0.1788947
-3.982633	Mauritius	-0.3931739
-3.982633	Max	-0.5305604
-3.982633	May	-0.1788495
-3.982633	McDonnell	-0.1789399
-3.982633	Means	-0.1789399
-3.982633	Medico	-0.1789399
-3.982633	Mediterranean	-0.2391378
-3.982633	Medusae	-0.1789399
-3.982633	Megatherium	-0.3094232
-3.982633	Melipona	-0.2521548
-3.982633	Memoirs	-0.1789399
-3.982633	Mere	-0.1788947
-3.982633	Merganetta	-0.1789399
-3.982633	Merionethshire	-0.1789399
-3.982633	Merrell	-0.1789399
-3.982633	Messrs	-0.3931739
-3.982633	Mexican	-0.1788495
-3.982633	Mexico	-0.1789399
-3.982633	Micropterus	-0.1789399
-3.982633	Miller	-0.1788947
-3.982633	Milne	-0.80371
-3.982633	Mimulus	-0.1789399
-3.982633	Miocene	-0.1789399
-3.982633	Mirabilis	-0.1789399
-3.982633	Mississippi	-0.1788947
-3.982633	Mivart	-0.4367364
-3.982633	Mivart's	-0.2299359
-3.982633	Modern	-0.1789399
-3.982633	Modes	-0.1789399
-3.982633	Modifications	-0.1789399
-3.982633	Mollusca	-0.1788947
-3.982633	Molluscae	-0.1789399
-3.982633	Molluscs	-0.1789399
-3.982633	Molothrus	-0.3093328
-3.982633	Monachanthus	-0.1789399
-3.982633	Mongrel	-0.1789399
-3.982633	Mongrels	-0.1789399
-3.982633	Mons	-0.1789399
-3.982633	Moquin	-0.1789399
-3.982633	More	-0.1788947
-3.982633	Moreover	-1.559106
-3.982633	Moritz	-0.1789399
-3.982633	Morphologie	-0.1789399
-3.982633	Morphology	-0.1788495
-3.982633	Morren	-0.1789399
-3.982633	Morton's	-0.1789399
-3.982633	Most	-0.3943428
-3.982633	Motacillae	-0.1789399
-3.982633	Mountain	-0.1789399
-3.982633	Mountains	-0.2728883
-3.982633	Mozart	-0.1789399
-3.982633	Mr	-2.287756
-3.982633	Much	-0.1788947
-3.982633	Muller	-0.4418447
-3.982633	Multiple	-0.1788947
-3.982633	Murchison	-0.3094232
-3.982633	Murchison's	-0.1789399
-3.982633	Murie	-0.1789399
-3.982633	Murray	-0.1788947
-3.982633	Mus	-0.1789399
-3.982633	Museum	-0.1789399
-3.982633	Mussel!	-0.1789399
-3.982633	Must	-0.1789399
-3.982633	Mustela	-0.1789399
-3.982633	My	-0.1788043
-3.982633	Myanthus	-0.1789399
-3.982633	Mylodon	-0.1789399
-3.982633	Myrmecoeystus	-0.1789399
-3.982633	Myrmica	-0.1788947
-3.982633	Mysis	-0.1789399
-3.982633	N	-0.6116582
-3.982633	NASCENT	-0.1789399
-3.982633	NATATORY	-0.1789399
-3.982633	NATURAL	-0.3931739
-3.982633	NATURE	-0.1789399
-3.982633	NAUPLIUS	-0.1789399
-3.982633	NEURATION	-0.1789399
-3.982633	NEUTERS	-0.1789399
-3.982633	NICTITATING	-0.1789399
-3.982633	Nageli	-0.1789399
-3.982633	Nageli's	-0.1788947
-3.982633	Natal	-0.1789399
-3.982633	Nathusius	-0.1789399
-3.982633	Natura	-0.6116582
-3.982633	Natural	-1.841561
-3.982633	Naturalist	-0.1789399
-3.982633	Naturalists	-0.1788495
-3.982633	Nature	-0.3012768
-3.982633	Nature's	-0.1789399
-3.982633	Naudin	-0.1788495
-3.982633	Nauplius	-0.1789399
-3.982633	Nautilus	-0.1789399
-3.982633	Near	-0.1789399
-3.982633	Nearly	-0.3931286
-3.982633	Neilgherrie	-0.1789399
-3.982633	Neither	-0.1789399
-3.982633	Nelumbium	-0.1788947
-3.982633	Neuter	-0.1789399
-3.982633	Nevertheless	-0.6132171
-3.982633	New	-1.101231
-3.982633	Newman	-0.1788947
-3.982633	Newton	-0.1788947
-3.982633	Next	-0.1789399
-3.982633	Niata	-0.3931739
-3.982633	Niatas	-0.1789399
-3.982633	Nicotiana	-0.1788495
-3.982633	Nitsche	-0.1789399
-3.982633	No	-0.7227809
-3.982633	Noble	-0.1789399
-3.982633	Noetoma	-0.1789399
-3.982633	Nor	-0.551288
-3.982633	Norfolk	-0.1789399
-3.982633	North	-1.097902
-3.982633	Northern	-0.1788947
-3.982633	Norway	-0.4126566
-3.982633	Norwegian	-0.1788947
-3.982633	Not	-0.2339119
-3.982633	Nothing	-0.3652913
-3.982633	Notwithstanding	-0.3094232
-3.982633	Nova	-0.1789399
-3.982633	November	-0.1789399
-3.982633	Now	-0.5245383
-3.982633	Nucula	-0.1789399
-3.982633	Numerous	-0.2880625
-3.982633	OBJECTIONS	-0.1789399
-3.982633	OCELLI	-0.1789399
-3.982633	OESOPHAGUS	-0.1789399
-3.982633	OF	-0.377272
-3.982633	ON	-0.3931739
-3.982633	OOLITIC	-0.1789399
-3.982633	OPERCULUM	-0.1789399
-3.982633	OR	-0.1789399
-3.982633	ORBIT	-0.1789399
-3.982633	ORGANIC	-0.3931739
-3.982633	ORGANISM	-0.1789399
-3.982633	ORGANS	-0.1789399
-3.982633	ORTHOSPERMOUS	-0.1789399
-3.982633	OSCULANT	-0.1789399
-3.982633	OVA	-0.1789399
-3.982633	OVARIUM	-0.1789399
-3.982633	OVARY	-0.1789399
-3.982633	OVIGEROUS	-0.1789399
-3.982633	OVULES	-0.1789399
-3.982633	Objections	-0.1788947
-3.982633	Obviously	-0.1789399
-3.982633	Ocean	-0.2727526
-3.982633	Oceanic	-0.3931286
-3.982633	Of	-0.3908213
-3.982633	Offspring	-0.1789399
-3.982633	Old	-0.8370691
-3.982633	On	-1.194433
-3.982633	One	-0.3027727
-3.982633	Onites	-0.1789399
-3.982633	Only	-0.2728883
-3.982633	Ononis	-0.1789399
-3.982633	Optics	-0.1789399
-3.982633	Or	-0.4181427
-3.982633	Orchis	-0.1789399
-3.982633	Order	-0.1788947
-3.982633	Orders	-0.1789399
-3.982633	Organ	-0.1789399
-3.982633	Organic	-0.3931739
-3.982633	Organisation	-0.1789399
-3.982633	Organs	-0.2727526
-3.982633	Origin	-0.3409516
-3.982633	Ornithorhynchus	-0.2231476
-3.982633	Oswald	-0.1789399
-3.982633	Other	-0.1787138
-3.982633	Others	-0.1788947
-3.982633	Our	-0.2231476
-3.982633	Oural	-0.1789399
-3.982633	Out	-0.3931739
-3.982633	Over	-0.1789399
-3.982633	Owen	-0.6659902
-3.982633	Owen's	-0.1788947
-3.982633	Owing	-0.6116582
-3.982633	Oxalis	-0.1788947
-3.982633	P	-0.5305604
-3.982633	PACHYDERMS	-0.1789399
-3.982633	PALAEOZOIC	-0.1789399
-3.982633	PALPI	-0.1789399
-3.982633	PAPILIONACEAE	-0.1789399
-3.982633	PARASITE	-0.1789399
-3.982633	PARTHENOGENESIS	-0.1789399
-3.982633	PEDUNCULATED	-0.1789399
-3.982633	PELORIA	-0.1789399
-3.982633	PELORISM	-0.1789399
-3.982633	PELVIS	-0.1789399
-3.982633	PERIOD	-0.3931739
-3.982633	PETALS	-0.1789399
-3.982633	PHYLLODINEOUS	-0.1789399
-3.982633	PIGMENT	-0.1789399
-3.982633	PINNATE	-0.1789399
-3.982633	PISTILS	-0.1789399
-3.982633	PLACENTALIA	-0.1789399
-3.982633	PLACENTATA	-0.1789399
-3.982633	PLANTIGRADES	-0.1789399
-3.982633	PLANTS	-0.6116582
-3.982633	PLASTIC	-0.1789399
-3.982633	PLEISTOCENE	-0.1789399
-3.982633	PLUMULE	-0.1789399
-3.982633	PLUTONIC	-0.1789399
-3.982633	POLLEN	-0.1789399
-3.982633	POLYANDROUS	-0.1789399
-3.982633	POLYGAMOUS	-0.1789399
-3.982633	POLYMORPHIC	-0.1789399
-3.982633	POLYZOARY	-0.1789399
-3.982633	PREHENSILE	-0.1789399
-3.982633	PREPOTENT	-0.1789399
-3.982633	PRESENT	-0.1789399
-3.982633	PRIMARIES	-0.1789399
-3.982633	PRINCIPAL	-0.1789399
-3.982633	PROCESSES	-0.1789399
-3.982633	PROPOLIS	-0.1789399
-3.982633	PROTEAN	-0.1789399
-3.982633	PROTOZOA	-0.1789399
-3.982633	PUPA	-0.1789399
-3.982633	Pacific	-0.2877308
-3.982633	Pacini	-0.1789399
-3.982633	Palaeontological	-0.1789399
-3.982633	Palaeontology	-0.1788947
-3.982633	Palaeozoic	-0.2800531
-3.982633	Paley	-0.1789399
-3.982633	Pallas	-0.3094232
-3.982633	Pallasian	-0.1789399
-3.982633	Panama	-0.1788947
-3.982633	Papaver	-0.1789399
-3.982633	Paradoxical	-0.1789399
-3.982633	Paraguay	-0.1788495
-3.982633	Parime	-0.1789399
-3.982633	Paris	-0.1789399
-3.982633	Part	-0.1788947
-3.982633	Parts	-0.1788947
-3.982633	Parus	-0.3931739
-3.982633	Passiflora	-0.3931739
-3.982633	Passing	-0.1789399
-3.982633	Peculiar	-0.1789399
-3.982633	Pedunculated	-0.1789399
-3.982633	Pelargonium	-0.1789399
-3.982633	Penaeus	-0.1789399
-3.982633	Peninsula	-0.1789399
-3.982633	Perfection	-0.1789399
-3.982633	Perhaps	-0.4839618
-3.982633	Period	-0.1789399
-3.982633	Periods	-0.1789399
-3.982633	Perrier	-0.1789399
-3.982633	Persia	-0.1788947
-3.982633	Pertaining	-0.1789399
-3.982633	Petrels	-0.1789399
-3.982633	Petunia	-0.1789399
-3.982633	Phascolomys	-0.1788947
-3.982633	Phasianus	-0.1789399
-3.982633	Physical	-0.1789399
-3.982633	Physiologists	-0.1789399
-3.982633	Pictet	-0.4600624
-3.982633	Pictet's	-0.1788947
-3.982633	Pierce	-0.1789399
-3.982633	Pierre	-0.5305604
-3.982633	Pigeon	-0.1788947
-3.982633	Pigeons	-0.1788495
-3.982633	Placental	-0.1788947
-3.982633	Planorbis	-0.1789399
-3.982633	Plants	-0.3547158
-3.982633	Plata	-0.3447162
-3.982633	Pleuronectidae	-0.406004
-3.982633	Pliny	-0.1788947
-3.982633	Pliny's	-0.1789399
-3.982633	Pliocene	-0.4839618
-3.982633	Po	-0.1788947
-3.982633	Polar	-0.6116582
-3.982633	Polemoniacae	-0.1789399
-3.982633	Polyerges	-0.1789399
-3.982633	Polymorphic	-0.1789399
-3.982633	Polyzoa	-0.3199604
-3.982633	Pontella	-0.1789399
-3.982633	Poole	-0.1788043
-3.982633	Poorness	-0.1789399
-3.982633	Portillo	-0.1789399
-3.982633	Porto	-0.5305604
-3.982633	Possessing	-0.1789399
-3.982633	Possibly	-0.1789399
-3.982633	Post	-0.1789399
-3.982633	Potamogeton	-0.1789399
-3.982633	Pouchet	-0.1789399
-3.982633	Power	-0.1788947
-3.982633	Practically	-0.3931739
-3.982633	Presenting	-0.1788947
-3.982633	Prestwich	-0.1789399
-3.982633	Principles	-0.5305604
-3.982633	Prion	-0.1789399
-3.982633	Probable	-0.1789399
-3.982633	Probably	-0.1789399
-3.982633	Proctotrupes	-0.1789399
-3.982633	Prodromus	-0.1789399
-3.982633	Productions	-0.1789399
-3.982633	Prof	-0.9218846
-3.982633	Professor	-0.4129549
-3.982633	Progenitor	-0.1789399
-3.982633	Projecting	-0.1789399
-3.982633	Prosper	-0.1788947
-3.982633	Proteaceae	-0.1789399
-3.982633	Proteolepas	-0.1788947
-3.982633	Proteus	-0.1789399
-3.982633	Protozoa	-0.3094232
-3.982633	Psychology	-0.1789399
-3.982633	Puffinuria	-0.1789399
-3.982633	Pupae	-0.1789399
-3.982633	Pure	-0.1789399
-3.982633	Pyrenees	-0.4126566
-3.982633	Pyrgoma	-0.3931739
-3.982633	Q	-0.1789399
-3.982633	Quadrupeds	-0.1789399
-3.982633	Quatrefages	-0.1789399
-3.982633	Quercus	-0.3931739
-3.982633	R	-0.7278696
-3.982633	RADICLE	-0.1789399
-3.982633	RAMUS	-0.1789399
-3.982633	RANGE	-0.1789399
-3.982633	RECAPITULATION	-0.1789399
-3.982633	RECORD	-0.1789399
-3.982633	RETINA	-0.1789399
-3.982633	RETROGRESSION	-0.1789399
-3.982633	RHIZOPODS	-0.1789399
-3.982633	ROCKS	-0.3931739
-3.982633	RODENTS	-0.1789399
-3.982633	RUBUS	-0.1789399
-3.982633	RUDIMENTARY	-0.1788947
-3.982633	RUMINANTS	-0.1789399
-3.982633	Races	-0.1789399
-3.982633	Radcliffe	-0.1789399
-3.982633	Ramond	-0.1789399
-3.982633	Ramsay	-0.3093328
-3.982633	Ramsay's	-0.1789399
-3.982633	Range	-0.1789399
-3.982633	Rare	-0.1789399
-3.982633	Rarity	-0.1788947
-3.982633	Ratio	-0.3931739
-3.982633	Ray	-0.3931739
-3.982633	Readily	-0.1789399
-3.982633	Reason	-0.1789399
-3.982633	Recent	-0.1789399
-3.982633	Reciprocal	-0.1789399
-3.982633	Record	-0.3094232
-3.982633	Red	-0.1789399
-3.982633	Reer	-0.1789399
-3.982633	Reflecting	-0.1789399
-3.982633	Relations	-0.3931739
-3.982633	Rengger	-0.1789399
-3.982633	Reproduction	-0.1789399
-3.982633	Resemblances	-0.1789399
-3.982633	Returning	-0.1789399
-3.982633	Rev	-0.80371
-3.982633	Review	-0.1788947
-3.982633	Rewitt	-0.1789399
-3.982633	Rhea	-0.1789399
-3.982633	Rhinanthideae	-0.1789399
-3.982633	Rhine	-0.1789399
-3.982633	Rhod	-0.1789399
-3.982633	Rhododendron	-0.1789399
-3.982633	Ribston	-0.1789399
-3.982633	Richard	-0.1789399
-3.982633	Richardson	-0.1788947
-3.982633	Rio	-0.3931739
-3.982633	Robert	-0.3931739
-3.982633	Robinia	-0.1789399
-3.982633	Rocks	-0.1788495
-3.982633	Rocky	-0.1789399
-3.982633	Rogers's	-0.1789399
-3.982633	Rollin	-0.1789399
-3.982633	Roman	-0.1789399
-3.982633	Romans	-0.1788947
-3.982633	Rosa	-0.1789399
-3.982633	Roy	-0.1789399
-3.982633	Rubus	-0.1789399
-3.982633	Rudimentary	-0.7499644
-3.982633	Russia	-0.2523357
-3.982633	Rutabaga	-0.1789399
-3.982633	Rutacese	-0.1789399
-3.982633	Rutimeyer	-0.1788947
-3.982633	S	-1.230404
-3.982633	SACRAL	-0.1789399
-3.982633	SARCODE	-0.1789399
-3.982633	SCIENTIFIC	-0.1789399
-3.982633	SCUTELLAE	-0.1789399
-3.982633	SEDIMENTARY	-0.1789399
-3.982633	SEGMENTS	-0.1789399
-3.982633	SELECTION	-0.1788947
-3.982633	SEPALS	-0.1789399
-3.982633	SERRATURES	-0.1789399
-3.982633	SESSILE	-0.1789399
-3.982633	SILURIAN	-0.1789399
-3.982633	SPECIALISATION	-0.1789399
-3.982633	SPINAL	-0.1789399
-3.982633	STAGE	-0.3931739
-3.982633	STAMENS	-0.1789399
-3.982633	STERNUM	-0.1789399
-3.982633	STIGMA	-0.1789399
-3.982633	STIPULES	-0.1789399
-3.982633	STRUGGLE	-0.1789399
-3.982633	STYLE	-0.1789399
-3.982633	SUBCUTANEOUS	-0.1789399
-3.982633	SUCCESSION	-0.1789399
-3.982633	SUCTORIAL	-0.1789399
-3.982633	SURVIVAL	-0.1789399
-3.982633	SUTURES	-0.1789399
-3.982633	SYSTEM	-0.3094232
-3.982633	Sageret	-0.1788947
-3.982633	Saint	-0.5305604
-3.982633	Salamandra	-0.1789399
-3.982633	Salt	-0.1789399
-3.982633	Salter	-0.1789399
-3.982633	Salvin	-0.1788947
-3.982633	Sandstone	-0.1789399
-3.982633	Santo	-0.1788495
-3.982633	Saponaria	-0.1789399
-3.982633	Saporta	-0.1789399
-3.982633	Saurophagus	-0.1789399
-3.982633	Saussure	-0.1789399
-3.982633	Savages	-0.1789399
-3.982633	Saxicolae	-0.1789399
-3.982633	Saxony	-0.1789399
-3.982633	Scandinavia	-0.3931739
-3.982633	Scarcely	-0.3931739
-3.982633	Schacht	-0.1789399
-3.982633	Schiodte	-0.2728883
-3.982633	Schiodte's	-0.1789399
-3.982633	Schlegel	-0.1789399
-3.982633	Schobl	-0.1789399
-3.982633	Science	-0.1788947
-3.982633	Scoresby	-0.1789399
-3.982633	Scotch	-0.4839618
-3.982633	Scotia	-0.1789399
-3.982633	Scotland	-0.2728883
-3.982633	Scott	-0.1788947
-3.982633	Scrophulariaceae	-0.1789399
-3.982633	Sea	-0.1789399
-3.982633	Sebright	-0.1789399
-3.982633	Secondary	-0.1787591
-3.982633	Secondly	-0.6116582
-3.982633	Sedgwick	-0.1788947
-3.982633	Sedimentary	-0.1789399
-3.982633	See	-0.2523357
-3.982633	Seedlings	-0.1789399
-3.982633	Seeds	-0.1788947
-3.982633	Seeing	-0.2728883
-3.982633	Seemann	-0.1789399
-3.982633	Selection	-0.4297868
-3.982633	Sequard	-0.1789399
-3.982633	Serious	-0.1789399
-3.982633	Sessile	-0.1789399
-3.982633	Several	-0.3931352
-3.982633	Sexual	-0.4559695
-3.982633	Seychelles	-0.3931739
-3.982633	She	-0.1789399
-3.982633	Shells	-0.1789399
-3.982633	Siberia	-0.1788495
-3.982633	Sicily	-0.1789399
-3.982633	Sikkim	-0.1789399
-3.982633	Silene	-0.1789399
-3.982633	Silla	-0.1789399
-3.982633	Silliman	-0.1788947
-3.982633	Silurian	-0.2724812
-3.982633	Similar	-0.1789399
-3.982633	Since	-0.1788947
-3.982633	Single	-0.1788947
-3.982633	Sir	-0.8602126
-3.982633	Sirenia	-0.1788947
-3.982633	Sitaris	-0.1788495
-3.982633	Situated	-0.1789399
-3.982633	Slave	-0.1789399
-3.982633	Slow	-0.1788947
-3.982633	Small	-0.1788947
-3.982633	Smaller	-0.1789399
-3.982633	Smith	-0.3652913
-3.982633	Smith's	-0.1789399
-3.982633	Smitt	-0.1789399
-3.982633	Snakes	-0.1789399
-3.982633	So	-0.8596425
-3.982633	Society	-0.1789399
-3.982633	Solenhofen	-0.1789399
-3.982633	Solomon	-0.1788947
-3.982633	Some	-0.4650831
-3.982633	Somerville	-0.1789399
-3.982633	Something	-0.1788495
-3.982633	Sometimes	-0.1789399
-3.982633	Soon	-0.1788947
-3.982633	Sorbus	-0.1789399
-3.982633	Sorex	-0.1789399
-3.982633	South	-1.04174
-3.982633	Southern	-0.1788947
-3.982633	Southward	-0.1789399
-3.982633	Spaces	-0.1789399
-3.982633	Spain	-0.3199604
-3.982633	Spaniard	-0.1789399
-3.982633	Spaniards	-0.1789399
-3.982633	Spanish	-0.1788947
-3.982633	Spatangus	-0.1789399
-3.982633	Spatula	-0.1789399
-3.982633	Special	-0.1788947
-3.982633	Species	-0.2866593
-3.982633	Specific	-0.1788947
-3.982633	Spencer	-0.2523357
-3.982633	Sphegidea	-0.1789399
-3.982633	Spiders	-0.1789399
-3.982633	Sprengel	-0.3094232
-3.982633	Sprengel's	-0.1789399
-3.982633	Squalodon	-0.1789399
-3.982633	St	-0.6149909
-3.982633	Staffordshire	-0.3931739
-3.982633	State	-0.1789399
-3.982633	States	-0.6069708
-3.982633	Steenstrup	-0.1789399
-3.982633	Sterile	-0.1789399
-3.982633	Sterility	-0.3094232
-3.982633	Still	-0.5749884
-3.982633	Stock	-0.1789399
-3.982633	Straits	-0.1789399
-3.982633	Strata	-0.1789399
-3.982633	Strickland	-0.1789399
-3.982633	Structure	-0.1789399
-3.982633	Structures	-0.1789399
-3.982633	Struggle	-0.9541973
-3.982633	Subject	-0.1789399
-3.982633	Subsequently	-0.1789399
-3.982633	Succession	-0.1788495
-3.982633	Successive	-0.1789399
-3.982633	Such	-0.199977
-3.982633	Sudden	-0.1789399
-3.982633	Summary	-0.3215913
-3.982633	Supported	-0.1789399
-3.982633	Supposing	-0.1788947
-3.982633	Surrey	-0.3094232
-3.982633	Survival	-0.6116582
-3.982633	Sussex	-0.1789399
-3.982633	Swaysland	-0.1789399
-3.982633	Swedish	-0.3094232
-3.982633	Switzerland	-0.3183805
-3.982633	System	-0.3794093
-3.982633	Systematists	-0.3931739
-3.982633	T	-0.5305604
-3.982633	TARSI	-0.1789399
-3.982633	TARSUS	-0.1789399
-3.982633	TELEOSTEAN	-0.1789399
-3.982633	TENTACLES	-0.1789399
-3.982633	TENTACULA	-0.1789399
-3.982633	TERMS	-0.1789399
-3.982633	TERTIARY	-0.1789399
-3.982633	THE	-0.2389116
-3.982633	THEORY	-0.1788947
-3.982633	THIS	-0.1789399
-3.982633	TO	-0.1789399
-3.982633	TRACHEA	-0.1789399
-3.982633	TRIDACTYLE	-0.1789399
-3.982633	TRILOBITES	-0.1789399
-3.982633	TRIMORPHIC	-0.1789399
-3.982633	Tachytes	-0.1789399
-3.982633	Tait	-0.1789399
-3.982633	Take	-0.3931739
-3.982633	Tanais	-0.1789399
-3.982633	Tandon	-0.1789399
-3.982633	Tasmania	-0.3931739
-3.982633	Tasmanian	-0.1789399
-3.982633	Tausch	-0.1789399
-3.982633	Teeth	-0.1789399
-3.982633	Tegetmeier	-0.1788947
-3.982633	Temminck	-0.1789399
-3.982633	Term	-0.1789399
-3.982633	Terrestrial	-0.1789399
-3.982633	Tertiary	-0.3199604
-3.982633	That	-0.4080525
-3.982633	The	-0.3144376
-3.982633	Their	-0.1785782
-3.982633	Then	-0.1789399
-3.982633	Theory	-0.3094232
-3.982633	There	-1.048296
-3.982633	Therefore	-0.3435992
-3.982633	These	-0.350988
-3.982633	They	-0.4438573
-3.982633	Thirdly	-0.6116582
-3.982633	This	-0.4178203
-3.982633	Thompson	-0.1788495
-3.982633	Those	-0.2728883
-3.982633	Though	-0.1789399
-3.982633	Thouin	-0.1789399
-3.982633	Three	-0.1789399
-3.982633	Through	-0.1789399
-3.982633	Throughout	-0.2728883
-3.982633	Throw	-0.1789399
-3.982633	Thuret	-0.1789399
-3.982633	Thuret's	-0.1789399
-3.982633	Thus	-0.7281509
-3.982633	Thwaites	-0.1789399
-3.982633	Thylacinus	-0.1788947
-3.982633	Tierra	-0.80371
-3.982633	Time	-0.1789399
-3.982633	To	-0.3386752
-3.982633	Tomes	-0.1789399
-3.982633	Toulouse	-0.1789399
-3.982633	Toxodon	-0.1788947
-3.982633	Trachypterus	-0.1789399
-3.982633	Transition	-0.1789399
-3.982633	Transitional	-0.1789399
-3.982633	Transitions	-0.1789399
-3.982633	Traquair	-0.1789399
-3.982633	Trautschold	-0.1789399
-3.982633	Tree	-0.1789399
-3.982633	Triassic	-0.1789399
-3.982633	Trifolium	-0.1788947
-3.982633	Trigonia	-0.1789399
-3.982633	Trimen	-0.1789399
-3.982633	Trimorphism	-0.1789399
-3.982633	Troglodytes	-0.1789399
-3.982633	Turan	-0.1789399
-3.982633	Turkish	-0.1789399
-3.982633	Turkoman	-0.1789399
-3.982633	Turning	-0.5143012
-3.982633	Two	-0.1789399
-3.982633	Type	-0.1788495
-3.982633	Types	-0.1789399
-3.982633	Typotherium	-0.1789399
-3.982633	UMBELLIFERAE	-0.1789399
-3.982633	UNDER	-0.1788947
-3.982633	UNGULATA	-0.1789399
-3.982633	UNICELLULAR	-0.1789399
-3.982633	USED	-0.1789399
-3.982633	Ultimately	-0.1789399
-3.982633	Umbelliferae	-0.2391378
-3.982633	Unconscious	-0.1788947
-3.982633	Under	-0.2774702
-3.982633	Undoubtedly	-0.2523357
-3.982633	Une	-0.1789399
-3.982633	Unfortunately	-0.1789399
-3.982633	Ungulata	-0.3931739
-3.982633	Unintentionally	-0.1789399
-3.982633	United	-1.477076
-3.982633	Unity	-0.5305604
-3.982633	Unless	-0.2728883
-3.982633	Until	-0.2728883
-3.982633	Uria	-0.1789399
-3.982633	Use	-0.1788947
-3.982633	Useful	-0.1789399
-3.982633	Utilitarian	-0.1789399
-3.982633	V	-0.1788947
-3.982633	VARIATION	-0.3094232
-3.982633	VASCULAR	-0.1789399
-3.982633	VERMIFORM	-0.1789399
-3.982633	VERTEBRATA	-0.1789399
-3.982633	VERTEBRATE	-0.1789399
-3.982633	VESICLE	-0.1789399
-3.982633	VI	-0.3094232
-3.982633	VII	-0.1789399
-3.982633	VIII	-0.1789399
-3.982633	VOLUME	-0.1789399
-3.982633	Valenciennes'	-0.1789399
-3.982633	Van	-0.1789399
-3.982633	Variability	-0.2967178
-3.982633	Variable	-0.1788495
-3.982633	Variation	-0.3652913
-3.982633	Variations	-0.1788947
-3.982633	Varieties	-0.2179293
-3.982633	Variety	-0.1788947
-3.982633	Various	-0.1788495
-3.982633	Verbascum	-0.2728883
-3.982633	Verde	-0.406004
-3.982633	Verlot	-0.1789399
-3.982633	Verneuil	-0.1789399
-3.982633	Vertebrata	-0.4559695
-3.982633	Vertebrate	-0.1789399
-3.982633	Very	-0.1788947
-3.982633	Vienna	-0.1789399
-3.982633	Vincent	-0.1789399
-3.982633	Viola	-0.1788947
-3.982633	Virchow	-0.1789399
-3.982633	Virginia	-0.1788495
-3.982633	Viti	-0.1789399
-3.982633	Voila	-0.1789399
-3.982633	Von	-0.1789399
-3.982633	Vox	-0.1789399
-3.982633	W	-1.113898
-3.982633	WHEN	-0.1788947
-3.982633	WHORLS	-0.1789399
-3.982633	WILL	-0.1789399
-3.982633	WORKERS	-0.1789399
-3.982633	Wading	-0.1789399
-3.982633	Wagner	-0.1789399
-3.982633	Wagner's	-0.1788947
-3.982633	Wales	-0.1788947
-3.982633	Wallace	-0.8851835
-3.982633	Wallace's	-0.1788947
-3.982633	Walsh	-0.2728883
-3.982633	Wandering	-0.1789399
-3.982633	Waterhouse	-0.3093328
-3.982633	Waterhouse's	-0.1789399
-3.982633	Watson	-0.4156769
-3.982633	We	-1.090831
-3.982633	Wealden	-0.1789399
-3.982633	Weale	-0.1789399
-3.982633	Weismann	-0.1788947
-3.982633	Welsh	-0.3094232
-3.982633	Were	-0.1788947
-3.982633	West	-0.1788495
-3.982633	Western	-0.1788947
-3.982633	Westward	-0.1789399
-3.982633	Westwood	-0.3094232
-3.982633	What	-0.3413582
-3.982633	Whatever	-0.3547158
-3.982633	When	-0.6468581
-3.982633	Whenever	-0.1788947
-3.982633	Where	-0.3094232
-3.982633	Wherever	-0.1788947
-3.982633	Whether	-0.1787138
-3.982633	Whilst	-0.1788947
-3.982633	Whitaker	-0.1789399
-3.982633	White	-0.1789399
-3.982633	Who	-0.3931739
-3.982633	Whoever	-0.1789399
-3.982633	Why	-0.7259943
-3.982633	Wichura	-0.1788495
-3.982633	Wide	-0.1789399
-3.982633	Widely	-0.1789399
-3.982633	Will	-0.1789399
-3.982633	William	-0.3931739
-3.982633	Windsor	-0.1789399
-3.982633	With	-0.6479909
-3.982633	Within	-0.5305604
-3.982633	Without	-0.1789399
-3.982633	Wollaston	-0.2675074
-3.982633	Wollaston's	-0.1789399
-3.982633	Woodward	-0.1788043
-3.982633	World	-0.2391378
-3.982633	Worlds	-0.4313654
-3.982633	Would	-0.1789399
-3.982633	Wright	-0.1788947
-3.982633	Wyman	-0.1788947
-3.982633	X	-0.1788495
-3.982633	XI	-0.1789399
-3.982633	XII	-0.1789399
-3.982633	XIII	-0.1789399
-3.982633	XIV	-0.1789399
-3.982633	XV	-0.1789399
-3.982633	Yarrel	-0.1789399
-3.982633	Yet	-0.4367903
-3.982633	Yorkshire	-0.3931739
-3.982633	Youatt	-0.2728883
-3.982633	ZOEA	-0.1789399
-3.982633	ZOOIDS	-0.1789399
-3.982633	Zanthoxylon	-0.1789399
-3.982633	Zealand	-0.5805449
-3.982633	Zeuglodon	-0.1789399
-3.982633	Zoea	-0.1789399
-3.982633	Zoological	-0.1789399
-3.982633	a	-0.677889
-3.982633	a1	-0.2391378
-3.982633	a10	-0.2728883
-3.982633	a14	-0.5274472
-3.982633	a2	-0.1789399
-3.982633	a5	-0.1789399
-3.982633	abdomen	-0.1788495
-3.982633	aberrant	-0.2231476
-3.982633	aberration	-0.1788043
-3.982633	abhorrent	-0.1789399
-3.982633	abilities	-0.1789399
-3.982633	ability	-0.1788495
-3.982633	abjectly	-0.1789399
-3.982633	able	-1.007882
-3.982633	ably	-0.3094232
-3.982633	abnormal	-0.2761161
-3.982633	abnormally	-0.1788947
-3.982633	abodes	-0.1788947
-3.982633	aboriginal	-0.5904911
-3.982633	aboriginally	-0.3872818
-3.982633	aborigines	-0.1789399
-3.982633	aborted	-0.3877259
-3.982633	abortion	-0.6173333
-3.982633	abound	-0.2523357
-3.982633	abounded	-0.1789399
-3.982633	abounding	-0.3094232
-3.982633	abounds	-0.1788495
-3.982633	about	-0.4660784
-3.982633	about!	-0.1789399
-3.982633	above	-0.3239469
-3.982633	abraded	-0.1788947
-3.982633	abrupt	-0.3584237
-3.982633	abruptly	-0.2179293
-3.982633	absence	-1.156573
-3.982633	absent	-0.3370644
-3.982633	absolute	-0.3527626
-3.982633	absolutely	-0.3069155
-3.982633	absorbed	-0.1788495
-3.982633	absorbing	-0.1789399
-3.982633	absorption	-0.1789399
-3.982633	abstract	-0.4026925
-3.982633	abstraction	-0.1789399
-3.982633	absurd	-0.1788947
-3.982633	abundance	-0.3409516
-3.982633	abundant	-0.2727526
-3.982633	abundantly	-0.1788947
-3.982633	acacias	-0.1789399
-3.982633	accelerate	-0.1789399
-3.982633	acceleration	-0.1789399
-3.982633	accept	-0.1789399
-3.982633	accepted	-0.1788947
-3.982633	accepting	-0.1789399
-3.982633	access	-0.1789399
-3.982633	accessory	-0.1788947
-3.982633	accident	-0.3547158
-3.982633	accidental	-0.3132812
-3.982633	accidentally	-0.1788043
-3.982633	accidents	-0.3931739
-3.982633	acclimatisation	-0.2391378
-3.982633	acclimatised	-0.1788947
-3.982633	accommodated	-0.1789399
-3.982633	accompanied	-0.7268814
-3.982633	accompanying	-0.1788947
-3.982633	accord	-0.4457593
-3.982633	accordance	-1.178849
-3.982633	accordant	-0.1789399
-3.982633	according	-1.66181
-3.982633	accordingly	-0.1788495
-3.982633	accords	-0.4099725
-3.982633	account	-0.9793475
-3.982633	accounted	-1.230404
-3.982633	accounting	-0.1789399
-3.982633	accounts	-0.4126566
-3.982633	accumulate	-0.1787138
-3.982633	accumulated	-0.5494666
-3.982633	accumulates	-0.1788495
-3.982633	accumulating	-0.2434011
-3.982633	accumulation	-0.9692352
-3.982633	accumulations	-0.4126566
-3.982633	accumulative	-0.3094232
-3.982633	accuracy	-0.4396073
-3.982633	accurate	-0.1787591
-3.982633	accurately	-0.1788495
-3.982633	accused	-0.1789399
-3.982633	accustomed	-0.5305604
-3.982633	acetabulum	-0.1789399
-3.982633	achenes	-0.1788495
-3.982633	acid	-0.1788495
-3.982633	acknowledge	-0.3094232
-3.982633	acknowledged	-0.4259906
-3.982633	acknowledging	-0.1789399
-3.982633	acme	-0.3094232
-3.982633	acorn	-0.3931739
-3.982633	acorns	-0.1788947
-3.982633	acquainted	-0.5259889
-3.982633	acquire	-0.1786234
-3.982633	acquired	-0.5424822
-3.982633	acquirement	-0.2523357
-3.982633	acquiring	-0.1788947
-3.982633	acquisition	-0.4126566
-3.982633	acres	-0.3931739
-3.982633	across	-0.6206541
-3.982633	act	-0.6797678
-3.982633	acted	-0.6932463
-3.982633	acting	-0.2389116
-3.982633	action	-0.9527265
-3.982633	actions	-0.2880625
-3.982633	active	-0.4609613
-3.982633	actively	-0.1789399
-3.982633	activity	-0.1788947
-3.982633	acts	-0.6170804
-3.982633	actual	-0.1986265
-3.982633	actually	-0.204432
-3.982633	acuminata	-0.1789399
-3.982633	acutest	-0.1789399
-3.982633	adapt	-0.3433167
-3.982633	adaptation	-0.5353991
-3.982633	adaptations	-0.3877259
-3.982633	adapted	-0.7868405
-3.982633	adapting	-0.3199604
-3.982633	adaptive	-0.4806529
-3.982633	adapts	-0.1788947
-3.982633	add	-0.8997442
-3.982633	added	-0.3605804
-3.982633	adder	-0.1788947
-3.982633	adding	-0.2800531
-3.982633	addition	-0.1788043
-3.982633	additional	-0.1788043
-3.982633	adds	-0.3872818
-3.982633	adduce	-0.1789399
-3.982633	adduced	-0.2523357
-3.982633	adduces	-0.3094232
-3.982633	adhere	-0.3931739
-3.982633	adherent	-0.1789399
-3.982633	adheres	-0.2728883
-3.982633	adhering	-0.7278696
-3.982633	adhesion	-0.3931739
-3.982633	adhesive	-0.1788947
-3.982633	adjacent	-0.1789399
-3.982633	adjoining	-0.4357708
-3.982633	adjoins	-0.1789399
-3.982633	adjusted	-0.1789399
-3.982633	adjusting	-0.1789399
-3.982633	admirable	-0.2720977
-3.982633	admirably	-0.4158125
-3.982633	admiration	-0.3931739
-3.982633	admire	-0.372928
-3.982633	admired	-0.1788947
-3.982633	admiring	-0.1789399
-3.982633	admission	-0.3215913
-3.982633	admit	-0.7086124
-3.982633	admits	-0.5494985
-3.982633	admitted	-0.866593
-3.982633	admitting	-0.2299359
-3.982633	admonition	-0.1789399
-3.982633	adopt	-0.1789399
-3.982633	adult	-0.4534912
-3.982633	adults	-0.2880625
-3.982633	advance	-0.3049489
-3.982633	advanced	-0.4523285
-3.982633	advancement	-0.6173333
-3.982633	advancing	-0.1788043
-3.982633	advantage	-1.027355
-3.982633	advantageous	-0.5646716
-3.982633	advantages	-0.3336781
-3.982633	advice	-0.1788947
-3.982633	advisable	-0.3931739
-3.982633	advocated	-0.3931739
-3.982633	aeacias	-0.1789399
-3.982633	aenas	-0.1789399
-3.982633	aerial	-0.2391378
-3.982633	aestivation	-0.1788947
-3.982633	affair	-0.1789399
-3.982633	affect	-0.5096166
-3.982633	affected	-0.6355656
-3.982633	affecting	-0.2967178
-3.982633	affects	-0.2523357
-3.982633	affinities	-0.5820664
-3.982633	affinity	-0.5871987
-3.982633	affirm	-0.1788947
-3.982633	affirmative	-0.1788947
-3.982633	affixed	-0.1789399
-3.982633	afford	-0.2800531
-3.982633	afforded	-0.4085445
-3.982633	affording	-0.1788495
-3.982633	affords	-0.1788947
-3.982633	after	-0.4781085
-3.982633	afterwards	-0.2084883
-3.982633	again	-0.3749328
-3.982633	against	-0.5242908
-3.982633	age	-0.7037096
-3.982633	agencies	-0.2434011
-3.982633	agency	-0.4498525
-3.982633	agent	-0.1788947
-3.982633	agents	-0.1789399
-3.982633	ages	-0.4690423
-3.982633	agglutinated	-0.1789399
-3.982633	aggregate	-0.2728883
-3.982633	aggregated	-0.2523357
-3.982633	aggregates	-0.1789399
-3.982633	agitated	-0.1789399
-3.982633	agitation	-0.1789399
-3.982633	ago	-0.3636539
-3.982633	agouti	-0.1789399
-3.982633	agree	-0.3881758
-3.982633	agreeable	-0.1789399
-3.982633	agreeing	-0.1788947
-3.982633	agreement	-0.3094232
-3.982633	agrees	-0.1788495
-3.982633	agricultural	-0.1788043
-3.982633	agriculturist	-0.1788947
-3.982633	agriculturists	-0.1788947
-3.982633	aid	-0.5894246
-3.982633	aided	-0.439027
-3.982633	aiding	-0.1789399
-3.982633	aids	-0.1788947
-3.982633	air	-0.4138184
-3.982633	alarm	-0.1789399
-3.982633	alarmed	-0.1789399
-3.982633	albinism	-0.4126566
-3.982633	albino	-0.1788947
-3.982633	albumen	-0.1789399
-3.982633	algae	-0.1789399
-3.982633	alight	-0.5305604
-3.982633	alighted	-0.1788947
-3.982633	alighting	-0.1789399
-3.982633	alike	-0.4457273
-3.982633	alimentary	-0.1789399
-3.982633	alive	-0.2880625
-3.982633	all	-0.6586111
-3.982633	alliance	-0.3931739
-3.982633	allied	-0.8775665
-3.982633	allies	-0.2880625
-3.982633	alligators	-0.1789399
-3.982633	allocating	-0.1789399
-3.982633	allow	-0.4559695
-3.982633	allowance	-0.5934014
-3.982633	allowances	-0.1788947
-3.982633	allowed	-0.4267448
-3.982633	allowing	-0.2728883
-3.982633	allows	-0.2523357
-3.982633	allude	-0.9541973
-3.982633	alluded	-1.146083
-3.982633	alludes	-0.1789399
-3.982633	allusions	-0.1789399
-3.982633	almost	-0.6074154
-3.982633	alone	-0.5588252
-3.982633	along	-0.8923051
-3.982633	alpine	-0.3094232
-3.982633	already	-0.2852407
-3.982633	also	-0.4672217
-3.982633	alter	-0.6173333
-3.982633	alteration	-0.3547158
-3.982633	alterations	-0.3094232
-3.982633	altered	-0.2228309
-3.982633	altering	-0.3931739
-3.982633	alternate	-0.3093328
-3.982633	alternately	-0.1788947
-3.982633	alternations	-0.1788947
-3.982633	alternative	-0.1788495
-3.982633	although	-0.3121388
-3.982633	altitude	-0.1789399
-3.982633	altogether	-0.1786686
-3.982633	always	-0.2670231
-3.982633	am	-0.518756
-3.982633	amateurs	-0.1789399
-3.982633	ambiguously	-0.1789399
-3.982633	amended	-0.1789399
-3.982633	ammonites	-0.1788043
-3.982633	among	-0.2728883
-3.982633	amongst	-0.2968054
-3.982633	amount	-1.544202
-3.982633	amounting	-0.1789399
-3.982633	amounts	-0.1789399
-3.982633	amphibians	-0.1789399
-3.982633	ample	-0.2179293
-3.982633	amply	-0.5305604
-3.982633	amputated	-0.1789399
-3.982633	an	-0.5663866
-3.982633	analagous	-0.1789399
-3.982633	analogical	-0.368912
-3.982633	analogies	-0.2523357
-3.982633	analogous	-0.3843963
-3.982633	analogues	-0.1789399
-3.982633	analogy	-0.4098102
-3.982633	anatomical	-0.1789399
-3.982633	anatomists	-0.1789399
-3.982633	ancestor	-0.3292206
-3.982633	ancestors	-0.3931739
-3.982633	ancestral	-0.2728883
-3.982633	anchors	-0.1789399
-3.982633	ancient	-0.4553842
-3.982633	anciently	-0.1788495
-3.982633	ancon	-0.1789399
-3.982633	and	-0.6610168
-3.982633	angle	-0.3547158
-3.982633	angles	-0.3547158
-3.982633	angular	-0.1789399
-3.982633	animal	-0.559714
-3.982633	animal's	-0.2728883
-3.982633	animalcule	-0.1789399
-3.982633	animalcules	-0.3094232
-3.982633	animals	-0.8430685
-3.982633	annelid	-0.1788947
-3.982633	annelids	-0.1789399
-3.982633	annihilate	-0.1788495
-3.982633	annihilates	-0.1789399
-3.982633	announced	-0.1789399
-3.982633	annua	-0.1789399
-3.982633	annual	-0.1788947
-3.982633	annually	-0.1986265
-3.982633	anomalies	-0.1788947
-3.982633	anomalous	-0.2391378
-3.982633	anomaly	-0.1787138
-3.982633	another	-0.5739288
-3.982633	answer	-0.4502065
-3.982633	answered	-0.2523357
-3.982633	answering	-0.1788947
-3.982633	answers	-0.1788495
-3.982633	ant	-0.2389116
-3.982633	antarctic	-0.3094232
-3.982633	anteater	-0.1789399
-3.982633	antecedent	-0.1789399
-3.982633	antelopes	-0.1789399
-3.982633	antenna	-0.1788947
-3.982633	antennae	-0.2953545
-3.982633	anterior	-0.3232649
-3.982633	anther	-0.1788947
-3.982633	anthers	-0.4107449
-3.982633	anticipate	-0.1789399
-3.982633	anticipated	-0.3527626
-3.982633	anticipation	-0.1789399
-3.982633	antics	-0.1789399
-3.982633	antipode	-0.1789399
-3.982633	antiquity	-0.1788495
-3.982633	antler	-0.1789399
-3.982633	ants	-0.3190268
-3.982633	anxious	-0.1789399
-3.982633	any	-0.6408706
-3.982633	anyhow	-0.1788947
-3.982633	anything	-0.1786234
-3.982633	anywhere	-0.1787591
-3.982633	apart	-0.3094232
-3.982633	apelles	-0.1789399
-3.982633	aperture	-0.3094232
-3.982633	apertures	-0.1788947
-3.982633	apes	-0.1789399
-3.982633	aphides	-0.1785329
-3.982633	aphis	-0.1789399
-3.982633	aphorism	-0.1789399
-3.982633	apical	-0.1789399
-3.982633	apparatus	-0.3294507
-3.982633	apparent	-0.298593
-3.982633	apparently	-0.2752454
-3.982633	appear	-0.777067
-3.982633	appearance	-0.7337145
-3.982633	appearances	-0.3094232
-3.982633	appeared	-0.414258
-3.982633	appearing	-0.4106008
-3.982633	appears	-0.625295
-3.982633	appendage	-0.1789399
-3.982633	appendages	-0.2299359
-3.982633	appended	-0.3931739
-3.982633	apple	-0.3094232
-3.982633	apples	-0.1789399
-3.982633	applicable	-0.3545802
-3.982633	application	-0.1788495
-3.982633	applied	-0.6222304
-3.982633	applies	-0.5934014
-3.982633	apply	-0.3058918
-3.982633	applying	-0.1789399
-3.982633	appreciable	-0.1788947
-3.982633	appreciate	-0.3199604
-3.982633	appreciated	-0.1789399
-3.982633	appreciation	-0.1789399
-3.982633	apprehend	-0.1788947
-3.982633	approach	-0.4457593
-3.982633	approached	-0.1788947
-3.982633	approaches	-0.1787591
-3.982633	approaching	-0.1788947
-3.982633	appropriated	-0.3094232
-3.982633	appropriateness	-0.1789399
-3.982633	approximate	-0.1789399
-3.982633	approximately	-0.3931739
-3.982633	appurtenances	-0.1789399
-3.982633	apricot	-0.1789399
-3.982633	apt	-1.325023
-3.982633	aquarium	-0.1788947
-3.982633	aquatic	-0.304796
-3.982633	arbitrarily	-0.1788043
-3.982633	arbitrary	-0.1787591
-3.982633	arboreal	-0.1789399
-3.982633	arch	-0.1789399
-3.982633	arches	-0.1789399
-3.982633	archetype	-0.1789399
-3.982633	archipelago	-0.6380492
-3.982633	archipelagoes	-0.1788947
-3.982633	archipelagos	-0.1789399
-3.982633	architectural	-0.3094232
-3.982633	architecture	-0.1789399
-3.982633	arctic	-0.556009
-3.982633	arcticus	-0.1789399
-3.982633	are	-0.6471505
-3.982633	area	-0.5602381
-3.982633	areas	-0.6398489
-3.982633	argillaceous	-0.1789399
-3.982633	argue	-0.4126566
-3.982633	argued	-0.3547158
-3.982633	argues	-0.1789399
-3.982633	arguing	-0.1789399
-3.982633	argument	-0.3073766
-3.982633	arguments	-0.2137895
-3.982633	arid	-0.1788947
-3.982633	arise	-0.4559406
-3.982633	arisen	-0.2137895
-3.982633	arises	-0.1789399
-3.982633	arising	-0.4006992
-3.982633	arm	-0.3199604
-3.982633	armadillo	-0.3931739
-3.982633	armadilloes	-0.1789399
-3.982633	armadillos	-0.1789399
-3.982633	armata	-0.1789399
-3.982633	armed	-0.1788947
-3.982633	armorial	-0.1789399
-3.982633	armour	-0.1789399
-3.982633	arms	-0.5235338
-3.982633	arose	-0.1788947
-3.982633	around	-0.372928
-3.982633	arrange	-0.1788495
-3.982633	arranged	-0.4101577
-3.982633	arrangement	-0.7938713
-3.982633	arrangements	-0.1789399
-3.982633	arranging	-0.1788495
-3.982633	array	-0.1788947
-3.982633	arrested	-0.1789399
-3.982633	arrindia	-0.1789399
-3.982633	arrival	-0.1788947
-3.982633	arrive	-0.6424191
-3.982633	arrived	-0.9930024
-3.982633	arriving	-0.1788495
-3.982633	arrow	-0.1789399
-3.982633	art	-0.1788495
-3.982633	arteries	-0.1788495
-3.982633	artichoke	-0.1789399
-3.982633	article	-0.1788947
-3.982633	articulate	-0.2523357
-3.982633	articulated	-0.4158125
-3.982633	artificial	-0.1786234
-3.982633	artificially	-0.2967178
-3.982633	arvensis	-0.1789399
-3.982633	as	-0.8471103
-3.982633	ascend	-0.1788947
-3.982633	ascended	-0.1788947
-3.982633	ascending	-0.2299359
-3.982633	ascertain	-0.2728883
-3.982633	ascertained	-0.2577801
-3.982633	ascertaining	-0.1788947
-3.982633	asclepiads	-0.1789399
-3.982633	asexual	-0.1789399
-3.982633	asexually	-0.1789399
-3.982633	ash	-0.1789399
-3.982633	ask	-0.1787591
-3.982633	asked	-0.9420967
-3.982633	asking	-0.1788947
-3.982633	asks	-0.4871546
-3.982633	asparagus	-0.1789399
-3.982633	aspect	-0.1789399
-3.982633	ass	-0.4452002
-3.982633	assert	-0.5735162
-3.982633	asserted	-0.7178552
-3.982633	assertion	-0.3094232
-3.982633	asserts	-0.4559695
-3.982633	asses	-0.1789399
-3.982633	assign	-0.3199604
-3.982633	assignable	-0.1789399
-3.982633	assigned	-0.2726169
-3.982633	assigning	-0.3094232
-3.982633	assigns	-0.1788947
-3.982633	assist	-0.1789399
-3.982633	assistance	-0.1788495
-3.982633	associated	-0.5934014
-3.982633	associates	-0.3094232
-3.982633	assume	-0.6630408
-3.982633	assumed	-0.3572077
-3.982633	assumes	-0.1788043
-3.982633	assuming	-0.1788043
-3.982633	assumption	-0.4702552
-3.982633	assurance	-0.1789399
-3.982633	assured	-0.5007948
-3.982633	assuredly	-0.293361
-3.982633	assuring	-0.1789399
-3.982633	astonished	-0.1789399
-3.982633	astonishing	-0.2389116
-3.982633	astonishingly	-0.1788947
-3.982633	astonishment	-0.2728883
-3.982633	astronomer	-0.1789399
-3.982633	asymmetrical	-0.1788947
-3.982633	at	-1.121646
-3.982633	ate	-0.1789399
-3.982633	atmosphere	-0.1789399
-3.982633	atmospheric	-0.1789399
-3.982633	atolls	-0.1789399
-3.982633	atom	-0.1788947
-3.982633	atoms	-0.1788947
-3.982633	atra	-0.1789399
-3.982633	atrophied	-0.3094232
-3.982633	attach	-0.1788043
-3.982633	attached	-1.023902
-3.982633	attachment	-0.1788495
-3.982633	attack	-0.2391378
-3.982633	attacked	-0.1788947
-3.982633	attacks	-0.4158125
-3.982633	attain	-0.1788947
-3.982633	attained	-0.1788043
-3.982633	attains	-0.1789399
-3.982633	attempt	-0.7228271
-3.982633	attempted	-0.9746391
-3.982633	attempting	-0.3931739
-3.982633	attempts	-0.1789399
-3.982633	attend	-0.1789399
-3.982633	attendance	-0.1789399
-3.982633	attended	-1.081939
-3.982633	attending	-0.1788947
-3.982633	attention	-0.4871694
-3.982633	attenuatus	-0.1789399
-3.982633	attested	-0.1789399
-3.982633	attract	-0.2728883
-3.982633	attraction	-0.4839618
-3.982633	attractive	-0.4126566
-3.982633	attracts	-0.1789399
-3.982633	attribute	-0.4580467
-3.982633	attributed	-0.8957431
-3.982633	attributes	-0.1789399
-3.982633	attributing	-0.1789399
-3.982633	auditory	-0.1789399
-3.982633	augment	-0.1788947
-3.982633	augmentation	-0.3094232
-3.982633	augmented	-0.3093328
-3.982633	augmenting	-0.1789399
-3.982633	auk	-0.1789399
-3.982633	auks	-0.3931739
-3.982633	aulicum	-0.1789399
-3.982633	aurochs	-0.1789399
-3.982633	authentic	-0.3931739
-3.982633	authenticated	-0.3094232
-3.982633	author	-0.1783518
-3.982633	author's	-0.1789399
-3.982633	authorised	-0.1789399
-3.982633	authorities	-0.2299359
-3.982633	authority	-0.3650916
-3.982633	authors	-0.3588071
-3.982633	autumn	-0.1789399
-3.982633	avail	-0.1788947
-3.982633	availed	-0.1789399
-3.982633	average	-0.3624838
-3.982633	averages	-0.1789399
-3.982633	aviary	-0.1788947
-3.982633	avicularia	-0.3383851
-3.982633	avicularian	-0.1788947
-3.982633	avicularium	-0.2728883
-3.982633	avoid	-0.2299359
-3.982633	avoided	-0.1788495
-3.982633	avoiding	-0.1789399
-3.982633	aware	-0.7430757
-3.982633	away	-0.3609407
-3.982633	awk!	-0.1789399
-3.982633	axe	-0.1789399
-3.982633	axiom	-0.1789399
-3.982633	axis	-0.4099725
-3.982633	azoic	-0.1789399
-3.982633	b14	-0.4126566
-3.982633	back	-0.383155
-3.982633	backbone	-0.1788947
-3.982633	backed	-0.1789399
-3.982633	backs	-0.1788947
-3.982633	backward	-0.1789399
-3.982633	backwards	-0.1787591
-3.982633	bad	-0.1788043
-3.982633	badius	-0.1789399
-3.982633	badly	-0.1789399
-3.982633	balance	-0.2675074
-3.982633	balanced	-0.1788495
-3.982633	balancement	-0.1789399
-3.982633	balancing	-0.1788495
-3.982633	baleen	-0.4638298
-3.982633	ball	-0.1788947
-3.982633	balloon	-0.1789399
-3.982633	bamboo	-0.1789399
-3.982633	band	-0.1789399
-3.982633	bandicoots	-0.1789399
-3.982633	banish	-0.1789399
-3.982633	banished	-0.1789399
-3.982633	bank	-0.4158125
-3.982633	bankiva	-0.1788947
-3.982633	banks!	-0.1789399
-3.982633	bantam	-0.1789399
-3.982633	bantams	-0.1789399
-3.982633	bar	-0.2728883
-3.982633	barb	-0.1786686
-3.982633	barbarian	-0.1789399
-3.982633	barbarians	-0.1789399
-3.982633	barbarous	-0.1788495
-3.982633	barberry	-0.1789399
-3.982633	barbs	-0.1788495
-3.982633	bare	-0.2523357
-3.982633	barely	-0.1788043
-3.982633	barest	-0.1789399
-3.982633	bark	-0.1788043
-3.982633	barley	-0.1789399
-3.982633	barnacle	-0.1789399
-3.982633	barnacles	-0.1788947
-3.982633	barred	-0.1786686
-3.982633	barren	-0.2498537
-3.982633	barrier	-0.1788947
-3.982633	barriers	-0.6764262
-3.982633	bars	-0.5377031
-3.982633	basal	-0.2299359
-3.982633	base	-0.8110604
-3.982633	based	-0.1789399
-3.982633	bases	-0.4134152
-3.982633	basin	-0.3931739
-3.982633	basins	-0.4982724
-3.982633	basis	-0.3547158
-3.982633	bastardised	-0.1789399
-3.982633	bastardwing	-0.1789399
-3.982633	bat	-0.808593
-3.982633	bath	-0.1789399
-3.982633	bathed	-0.1789399
-3.982633	batrachians	-0.2523357
-3.982633	bats	-0.3505132
-3.982633	battery	-0.1789399
-3.982633	battle	-0.5052819
-3.982633	battling	-0.1789399
-3.982633	bay	-0.1788043
-3.982633	be	-0.7194581
-3.982633	beach	-0.1789399
-3.982633	beak	-0.5217501
-3.982633	beaked	-0.1788495
-3.982633	beaks	-0.3938432
-3.982633	bean	-0.1788947
-3.982633	beans	-0.2728883
-3.982633	bear	-0.4992913
-3.982633	beard	-0.1789399
-3.982633	bearers	-0.3094232
-3.982633	bearing	-0.3383697
-3.982633	bearings	-0.1789399
-3.982633	bears	-0.3652913
-3.982633	beast	-0.1789399
-3.982633	beasts	-0.9192122
-3.982633	beat	-0.3199604
-3.982633	beaten	-0.2917806
-3.982633	beautiful	-0.2934221
-3.982633	beautifully	-0.2675074
-3.982633	beauty	-0.3751653
-3.982633	beauty's	-0.1789399
-3.982633	beaver	-0.1789399
-3.982633	became	-0.2341119
-3.982633	because	-0.4377344
-3.982633	become	-0.5231895
-3.982633	become!	-0.1789399
-3.982633	becomes	-0.2484955
-3.982633	becoming	-0.2425578
-3.982633	bed	-0.8156264
-3.982633	beds	-0.470627
-3.982633	bee	-0.5577248
-3.982633	bee's	-0.1789399
-3.982633	been	-0.6390861
-3.982633	bees	-0.4483298
-3.982633	beet	-0.1788947
-3.982633	beetle	-0.4339277
-3.982633	beetles	-0.4093606
-3.982633	before	-0.5818571
-3.982633	beg	-0.1789399
-3.982633	began	-0.5206589
-3.982633	begin	-0.1788947
-3.982633	beginning	-0.2523357
-3.982633	beginnings	-0.4126566
-3.982633	begins	-0.1788043
-3.982633	begun	-0.4158125
-3.982633	behave	-0.1788947
-3.982633	behaved	-0.5305604
-3.982633	behaviour	-0.1789399
-3.982633	beheld	-0.1789399
-3.982633	behind	-0.2391378
-3.982633	behold	-0.2728883
-3.982633	behold!	-0.1789399
-3.982633	beholder	-0.1789399
-3.982633	being	-0.3956673
-3.982633	being's	-0.1789399
-3.982633	beings	-0.6308079
-3.982633	belief	-0.7944832
-3.982633	believe	-1.38685
-3.982633	believed	-0.6620655
-3.982633	believes	-0.8259253
-3.982633	believing	-1.176046
-3.982633	bell	-0.1789399
-3.982633	bellowing	-0.1789399
-3.982633	belong	-0.8133023
-3.982633	belonged	-0.377272
-3.982633	belonging	-2.152023
-3.982633	belongs	-0.4158125
-3.982633	below	-0.2523357
-3.982633	bend	-0.1788947
-3.982633	bending	-0.1788947
-3.982633	beneath	-0.8533557
-3.982633	beneficent	-0.1789399
-3.982633	beneficial	-0.5374854
-3.982633	benefit	-0.2645692
-3.982633	benefits	-0.1789399
-3.982633	bent	-0.1789399
-3.982633	berardi	-0.1789399
-3.982633	berries	-0.1788947
-3.982633	berry	-0.1789399
-3.982633	besides	-0.2810946
-3.982633	bespeaks	-0.1789399
-3.982633	best	-0.3630703
-3.982633	betray	-0.1789399
-3.982633	betraying	-0.1789399
-3.982633	betrays	-0.1789399
-3.982633	better	-0.5396956
-3.982633	between	-0.7637486
-3.982633	betwixt	-0.1789399
-3.982633	bevelled	-0.3931739
-3.982633	beyond	-0.6558803
-3.982633	bidens	-0.1789399
-3.982633	biennial	-0.1789399
-3.982633	big	-0.1788495
-3.982633	bill	-0.1788947
-3.982633	bird	-0.4766742
-3.982633	bird's	-0.1788495
-3.982633	birds	-0.7439302
-3.982633	birds'	-0.7278696
-3.982633	birth	-0.592442
-3.982633	birthplace	-0.1787591
-3.982633	biting	-0.1788495
-3.982633	bits	-0.1789399
-3.982633	bitten	-0.1789399
-3.982633	bituminous	-0.1789399
-3.982633	bivalve	-0.1789399
-3.982633	bizcacha	-0.2523357
-3.982633	black	-0.3075445
-3.982633	blackbird	-0.1789399
-3.982633	blank	-0.3943428
-3.982633	blanks	-0.1789399
-3.982633	blend	-0.3094232
-3.982633	blended	-0.377272
-3.982633	blending	-0.2967178
-3.982633	blind	-0.3063561
-3.982633	blindness	-0.1788947
-3.982633	blocks	-0.1789399
-3.982633	blood	-0.3998361
-3.982633	blooded	-0.1789399
-3.982633	bloodhound	-0.6116582
-3.982633	bloodsucking	-0.1789399
-3.982633	blown	-0.6375099
-3.982633	blows	-0.1789399
-3.982633	blue	-0.3203714
-3.982633	bluish	-0.1788495
-3.982633	blunders	-0.1789399
-3.982633	boa	-0.1789399
-3.982633	board	-0.1788947
-3.982633	bodied	-0.1789399
-3.982633	bodies	-0.5437788
-3.982633	bodily	-0.2523357
-3.982633	body	-0.5756177
-3.982633	boisterous	-0.1789399
-3.982633	bold	-0.3094232
-3.982633	boldly	-0.1788495
-3.982633	bolt	-0.1789399
-3.982633	bonariensis	-0.3094232
-3.982633	bond	-0.55497
-3.982633	bone	-0.2299359
-3.982633	bones	-0.7723778
-3.982633	bony	-0.1787591
-3.982633	book	-0.1789399
-3.982633	booty	-0.1789399
-3.982633	border	-0.1789399
-3.982633	bordered	-0.1789399
-3.982633	borders	-0.1788947
-3.982633	bore	-0.1788495
-3.982633	bores	-0.1789399
-3.982633	boring	-0.1788947
-3.982633	born	-0.4693374
-3.982633	borne	-0.6650613
-3.982633	botanical	-0.2728883
-3.982633	botanist	-0.1788495
-3.982633	botanists	-0.5220115
-3.982633	botany	-0.1789399
-3.982633	both	-0.4727368
-3.982633	bottom	-0.3818025
-3.982633	bottoms	-0.1789399
-3.982633	boulders	-0.2800531
-3.982633	bound	-0.3547158
-3.982633	bounding	-0.1788947
-3.982633	box	-0.1788043
-3.982633	brachiopod	-0.3931739
-3.982633	brachiopods	-0.2728883
-3.982633	brackish	-0.1788947
-3.982633	bracteatum	-0.1789399
-3.982633	brain	-0.1787591
-3.982633	bramble	-0.1789399
-3.982633	brambles	-0.1789399
-3.982633	branch	-0.3690524
-3.982633	branched	-0.9192122
-3.982633	branches	-0.53648
-3.982633	branchiae	-0.3727471
-3.982633	branchial	-0.3931739
-3.982633	branching	-0.2577146
-3.982633	brave	-0.1789399
-3.982633	breadth	-0.3199604
-3.982633	break	-0.2521548
-3.982633	breakfast	-0.1789399
-3.982633	breaking	-0.1788495
-3.982633	breaks	-0.1788947
-3.982633	breast	-0.2523357
-3.982633	breathe	-0.3547158
-3.982633	breathed	-0.1789399
-3.982633	breathes	-0.1789399
-3.982633	breathing	-0.2104226
-3.982633	bred	-0.205271
-3.982633	breed	-0.5147377
-3.982633	breeder	-0.2299359
-3.982633	breeders	-0.3022931
-3.982633	breeding	-0.3399797
-3.982633	breeds	-0.7876711
-3.982633	breeze	-0.1788947
-3.982633	brethren	-0.1789399
-3.982633	brevity	-0.4702552
-3.982633	bridge	-0.1789399
-3.982633	bridged	-0.3931739
-3.982633	brief	-0.1787591
-3.982633	briefest	-0.1789399
-3.982633	briefly	-0.2761161
-3.982633	bright	-0.1788495
-3.982633	brightly	-0.6116582
-3.982633	brilliant	-0.3094232
-3.982633	bring	-0.2299359
-3.982633	bringing	-0.1786686
-3.982633	brings	-0.1788495
-3.982633	bristle	-0.3094232
-3.982633	bristles	-0.3931739
-3.982633	bristly	-0.1789399
-3.982633	broad	-0.2391378
-3.982633	broadly	-0.1789399
-3.982633	broke	-0.1789399
-3.982633	broken	-0.3485232
-3.982633	bronze	-0.3931739
-3.982633	broody	-0.1789399
-3.982633	brothers	-0.2523357
-3.982633	brought	-0.4897974
-3.982633	brown	-0.1788947
-3.982633	browse	-0.1787138
-3.982633	browsed	-0.1788947
-3.982633	browsers	-0.1789399
-3.982633	browsing	-0.3199604
-3.982633	brush	-0.3094232
-3.982633	brushwood	-0.1789399
-3.982633	brutal	-0.1789399
-3.982633	bucket	-0.2967178
-3.982633	bud	-0.1787591
-3.982633	budded	-0.1789399
-3.982633	budding	-0.2523357
-3.982633	buddings	-0.1789399
-3.982633	buds	-0.377272
-3.982633	bufonius	-0.1789399
-3.982633	bug	-0.1789399
-3.982633	bugs	-0.1789399
-3.982633	build	-0.3293802
-3.982633	building	-0.2800531
-3.982633	built	-0.1788495
-3.982633	bulb	-0.1789399
-3.982633	bulk	-0.1788947
-3.982633	bulkier	-0.1789399
-3.982633	bulky	-0.3094232
-3.982633	bull	-0.4126566
-3.982633	bulldog	-0.3931739
-3.982633	bulls	-0.3931739
-3.982633	bunch	-0.3931739
-3.982633	buoyancy	-0.1788947
-3.982633	buried	-0.2523357
-3.982633	burnt	-0.1789399
-3.982633	burrow	-0.1788495
-3.982633	burrowing	-0.1788495
-3.982633	burrows	-0.1788947
-3.982633	burst	-0.1789399
-3.982633	burthened	-0.1789399
-3.982633	burthens	-0.1789399
-3.982633	bush	-0.1788043
-3.982633	bushes	-0.1788043
-3.982633	bustard	-0.1789399
-3.982633	but	-0.8434147
-3.982633	butterflies	-0.6290874
-3.982633	butterfly	-0.2137895
-3.982633	by	-0.7141503
-3.982633	cabbage	-0.2967178
-3.982633	cabbages	-0.1789399
-3.982633	cabinet	-0.1789399
-3.982633	caerulea	-0.1789399
-3.982633	cage	-0.1789399
-3.982633	cake	-0.1789399
-3.982633	cakes	-0.1789399
-3.982633	calcareous	-0.1786686
-3.982633	calculated	-0.1789399
-3.982633	calculating	-0.1789399
-3.982633	calculation	-0.1789399
-3.982633	calculations	-0.1789399
-3.982633	calf	-0.2728883
-3.982633	call	-0.2296644
-3.982633	called	-0.4040977
-3.982633	calls	-0.1788495
-3.982633	calves	-0.1789399
-3.982633	calyx	-0.3094232
-3.982633	came	-0.3292206
-3.982633	camel	-0.3547158
-3.982633	camera	-0.1789399
-3.982633	campestris	-0.1789399
-3.982633	can	-0.8173679
-3.982633	canal	-0.1789399
-3.982633	canary	-0.3094232
-3.982633	canine	-0.3931739
-3.982633	canines	-0.1789399
-3.982633	cannot	-0.6654744
-3.982633	canon	-0.3547158
-3.982633	capable	-1.193045
-3.982633	capacities	-0.1789399
-3.982633	capacity	-0.429287
-3.982633	capense	-0.1789399
-3.982633	capes	-0.1789399
-3.982633	capital	-0.3931739
-3.982633	capped	-0.1788947
-3.982633	capping	-0.1789399
-3.982633	capriciously	-0.1788947
-3.982633	capsule	-0.2179293
-3.982633	capsules	-0.1788495
-3.982633	captivates	-0.1789399
-3.982633	captivity	-0.1789399
-3.982633	capture	-0.1788947
-3.982633	captured	-0.1788947
-3.982633	capturing	-0.1789399
-3.982633	capybara	-0.1789399
-3.982633	carapace	-0.1788947
-3.982633	carbolic	-0.3931739
-3.982633	carboniferous	-0.1788495
-3.982633	carcases	-0.1789399
-3.982633	cardoon	-0.1789399
-3.982633	care	-0.3063561
-3.982633	career	-0.1789399
-3.982633	careered	-0.1789399
-3.982633	careful	-0.2964916
-3.982633	carefully	-0.2575951
-3.982633	careless	-0.1789399
-3.982633	cares	-0.1788947
-3.982633	carices	-0.1789399
-3.982633	carnivora	-0.1788947
-3.982633	carnivorous	-0.3872818
-3.982633	carriage	-0.1788947
-3.982633	carried	-0.3811196
-3.982633	carrier	-0.5235338
-3.982633	carriers	-0.4126566
-3.982633	carrot	-0.1789399
-3.982633	carry	-0.2942314
-3.982633	carrying	-0.1787591
-3.982633	cart	-0.3930834
-3.982633	cartilaginous	-0.1789399
-3.982633	carunculated	-0.1789399
-3.982633	case	-0.9042075
-3.982633	cases	-0.7305573
-3.982633	cast	-0.1789399
-3.982633	caste	-0.2728883
-3.982633	castes	-0.4888505
-3.982633	castrated	-0.3094232
-3.982633	cat	-0.2299359
-3.982633	cataclysm	-0.1789399
-3.982633	cataclysms	-0.1789399
-3.982633	catalogue	-0.3094232
-3.982633	catalogues	-0.1789399
-3.982633	catastrophes	-0.1789399
-3.982633	catawbiense	-0.1789399
-3.982633	catch	-0.2391378
-3.982633	catching	-0.1788947
-3.982633	caterpillar	-0.2675074
-3.982633	caterpillars	-0.1788495
-3.982633	cats	-0.3215913
-3.982633	cattle	-0.5254326
-3.982633	caudal	-0.1788947
-3.982633	caudicle	-0.372928
-3.982633	caudicles	-0.3931739
-3.982633	caught	-0.1786686
-3.982633	cauliflower	-0.1789399
-3.982633	causa	-0.3094232
-3.982633	cause	-0.6062831
-3.982633	caused	-0.7009866
-3.982633	causes	-0.5483147
-3.982633	causing	-0.2617974
-3.982633	caution	-0.1789399
-3.982633	cautioned	-0.1789399
-3.982633	cautious	-1.258076
-3.982633	cave	-0.3049489
-3.982633	caverns	-0.2728883
-3.982633	caves	-0.6070694
-3.982633	cavities	-0.1789399
-3.982633	cavity	-0.1789399
-3.982633	cease	-0.3370644
-3.982633	ceased	-0.4839618
-3.982633	ceases	-0.4158125
-3.982633	ceasing	-0.1789399
-3.982633	celebrated	-0.1787591
-3.982633	cell	-0.3150787
-3.982633	cells	-0.6428875
-3.982633	cellular	-0.2728883
-3.982633	cement	-0.2728883
-3.982633	cemented	-0.1789399
-3.982633	censured	-0.1789399
-3.982633	cent	-0.1788947
-3.982633	centipede	-0.1789399
-3.982633	centipedes	-0.1788947
-3.982633	central	-0.277412
-3.982633	centre	-0.377272
-3.982633	centres	-0.5206589
-3.982633	centuries	-0.4987382
-3.982633	century	-0.372928
-3.982633	cephalopodic	-0.1789399
-3.982633	cephalopods	-0.3547158
-3.982633	cereals	-0.1789399
-3.982633	certain	-0.4313424
-3.982633	certainly	-0.3152944
-3.982633	certainty	-0.1789399
-3.982633	cetacean	-0.1789399
-3.982633	cetaceans	-0.3547158
-3.982633	chain	-0.7430757
-3.982633	chains	-0.1788947
-3.982633	chalk	-0.1788043
-3.982633	chalked	-0.1789399
-3.982633	chamber	-0.1787591
-3.982633	chambered	-0.1789399
-3.982633	chambers	-0.1788947
-3.982633	chance	-0.7892501
-3.982633	chanced	-0.3931739
-3.982633	chances	-0.1788043
-3.982633	change	-0.6040673
-3.982633	changed	-0.5963622
-3.982633	changes	-0.8674085
-3.982633	changing	-0.3791319
-3.982633	channel	-0.1789399
-3.982633	channels	-0.5305604
-3.982633	chaos	-0.1788947
-3.982633	chapter	-0.7924269
-3.982633	chapters	-0.3652913
-3.982633	character	-0.8229502
-3.982633	characterised	-0.6152416
-3.982633	characteristic	-0.5707624
-3.982633	characteristically	-0.1789399
-3.982633	characteristics	-0.1788495
-3.982633	characters	-0.7772208
-3.982633	charge	-0.1789399
-3.982633	charged	-0.6173333
-3.982633	charlock	-0.1789399
-3.982633	charms	-0.1788947
-3.982633	chase	-0.1789399
-3.982633	check	-0.2231476
-3.982633	checked	-0.4480921
-3.982633	checking	-0.1788947
-3.982633	checks	-0.1786686
-3.982633	cheek	-0.3094232
-3.982633	cheeked	-0.3931739
-3.982633	cheering	-0.1789399
-3.982633	chelae	-0.3094232
-3.982633	chelonia	-0.1789399
-3.982633	chemical	-0.1788495
-3.982633	chemists	-0.1789399
-3.982633	chequered	-0.1789399
-3.982633	cherry	-0.1789399
-3.982633	chest	-0.1789399
-3.982633	chestnut	-0.1788495
-3.982633	chew	-0.1789399
-3.982633	chickens	-0.3003602
-3.982633	chief	-0.3379775
-3.982633	chiefly	-0.3165325
-3.982633	child	-0.2179293
-3.982633	children	-0.1788947
-3.982633	chill	-0.1789399
-3.982633	chinks	-0.3931739
-3.982633	chisel	-0.1789399
-3.982633	chitons	-0.1789399
-3.982633	choice	-0.3094232
-3.982633	choicest	-0.1789399
-3.982633	choked	-0.1789399
-3.982633	choking	-0.1789399
-3.982633	choose	-0.1789399
-3.982633	choosing	-0.1789399
-3.982633	chose	-0.1788947
-3.982633	chosen	-0.3162985
-3.982633	chromatic	-0.3931739
-3.982633	chrysalis	-0.1788947
-3.982633	chuckle	-0.1789399
-3.982633	cilia	-0.1789399
-3.982633	circle	-0.1787138
-3.982633	circles	-0.1788947
-3.982633	circuitous	-0.3093328
-3.982633	circular	-0.1789399
-3.982633	circularly	-0.1788947
-3.982633	circulating	-0.1789399
-3.982633	circulation	-0.1789399
-3.982633	circulatory	-0.1789399
-3.982633	circumference	-0.1789399
-3.982633	circumferential	-0.2728883
-3.982633	circumpolar	-0.3094232
-3.982633	circumstance	-0.1786234
-3.982633	circumstanced	-0.1788947
-3.982633	circumstances	-0.5388771
-3.982633	cirripede	-0.1788043
-3.982633	cirripedes	-0.4506214
-3.982633	cited	-0.1789399
-3.982633	civilisation	-0.3093328
-3.982633	civilised	-0.3794093
-3.982633	civilising	-0.1789399
-3.982633	clad	-0.1789399
-3.982633	claim	-0.1789399
-3.982633	clamouring	-0.1789399
-3.982633	clasp	-0.1789399
-3.982633	claspers	-0.1789399
-3.982633	clasping	-0.1789399
-3.982633	class	-0.7938781
-3.982633	classed	-0.4089776
-3.982633	classes	-0.6766712
-3.982633	classical	-0.1788495
-3.982633	classification	-0.6668203
-3.982633	classifications	-0.2800531
-3.982633	classificatory	-0.3547158
-3.982633	classifying	-0.1788947
-3.982633	classing	-0.2800531
-3.982633	claw	-0.1789399
-3.982633	claws	-0.1788495
-3.982633	clays	-0.1789399
-3.982633	clean	-0.1788947
-3.982633	cleansed	-0.1789399
-3.982633	clear	-0.3202449
-3.982633	cleared	-0.1788043
-3.982633	clearer	-0.1789399
-3.982633	clearest	-0.3931739
-3.982633	clearly	-0.4545799
-3.982633	clearness	-0.1789399
-3.982633	cliff	-0.1788947
-3.982633	cliffs	-0.2231476
-3.982633	climatal	-0.5998905
-3.982633	climate	-0.6365509
-3.982633	climates	-0.400637
-3.982633	climates!	-0.1789399
-3.982633	climatic	-0.1789399
-3.982633	climax	-0.1789399
-3.982633	climb	-0.1787591
-3.982633	climber	-0.1788495
-3.982633	climbers	-0.2967178
-3.982633	climbing	-0.4638298
-3.982633	climbs	-0.1789399
-3.982633	cling	-0.1789399
-3.982633	clinging	-0.5305604
-3.982633	clings	-0.3931739
-3.982633	close	-0.505494
-3.982633	closed	-0.4436184
-3.982633	closely	-0.8299358
-3.982633	closer	-0.3003602
-3.982633	closest	-0.258428
-3.982633	closure	-0.3931739
-3.982633	clothe	-0.3931739
-3.982633	clothed	-0.4480921
-3.982633	clothing	-0.1788947
-3.982633	clouds	-0.1789399
-3.982633	clover	-0.3583141
-3.982633	clovers	-0.1788947
-3.982633	clue	-0.1788947
-3.982633	clump	-0.1789399
-3.982633	clumps	-0.1788495
-3.982633	clung	-0.1789399
-3.982633	cluster	-0.1789399
-3.982633	clustered	-0.3199604
-3.982633	clusters	-0.1788947
-3.982633	co	-0.3902581
-3.982633	coadaptation	-0.1788947
-3.982633	coadaptations	-0.1789399
-3.982633	coal	-0.1789399
-3.982633	coarse	-0.1788947
-3.982633	coarser	-0.3094232
-3.982633	coast	-0.3544444
-3.982633	coasts	-0.5305604
-3.982633	coat	-0.1788947
-3.982633	coated	-0.5305604
-3.982633	cobra	-0.1789399
-3.982633	cobs	-0.1789399
-3.982633	cocci	-0.1789399
-3.982633	cochineal	-0.1789399
-3.982633	cock	-0.2728883
-3.982633	cockfighter	-0.1789399
-3.982633	cockles	-0.1789399
-3.982633	cocknests	-0.1789399
-3.982633	cockroach	-0.1789399
-3.982633	cocks	-0.1789399
-3.982633	cocoon	-0.2523357
-3.982633	cocoons	-0.1789399
-3.982633	coelospermous	-0.1788947
-3.982633	coexistence	-0.1789399
-3.982633	cohere	-0.1788495
-3.982633	cohering	-0.1789399
-3.982633	coincide	-0.1789399
-3.982633	coincidence	-0.1788495
-3.982633	coincident	-0.1789399
-3.982633	colchicus	-0.1789399
-3.982633	cold	-0.371307
-3.982633	colder	-0.1788043
-3.982633	coldest	-0.3931739
-3.982633	colds	-0.1789399
-3.982633	coleoptera	-0.1789399
-3.982633	coleopterous	-0.3931739
-3.982633	collar	-0.1789399
-3.982633	collateral	-0.2728883
-3.982633	collect	-0.2967178
-3.982633	collected	-0.3934381
-3.982633	collecting	-0.1786234
-3.982633	collection	-0.3652913
-3.982633	collections	-0.1788947
-3.982633	colonies	-0.1789399
-3.982633	colonisation	-0.1789399
-3.982633	colonise	-0.1789399
-3.982633	colonised	-0.3094232
-3.982633	colonists	-0.244886
-3.982633	colour	-0.8069806
-3.982633	coloured	-0.2970577
-3.982633	colouring	-0.3287505
-3.982633	colourless	-0.1789399
-3.982633	colours	-0.2877308
-3.982633	colts	-0.1789399
-3.982633	column	-0.1788495
-3.982633	columnae	-0.1789399
-3.982633	comb	-0.3790934
-3.982633	combat	-0.3094232
-3.982633	combination	-0.1788947
-3.982633	combinations	-0.1788947
-3.982633	combine	-0.1789399
-3.982633	combined	-0.2880625
-3.982633	combines	-0.1789399
-3.982633	combining	-0.1789399
-3.982633	combs	-0.1787591
-3.982633	combustible	-0.1789399
-3.982633	come	-1.017923
-3.982633	comes	-0.8488573
-3.982633	coming	-0.4888505
-3.982633	command	-0.1789399
-3.982633	commanded	-0.1789399
-3.982633	commence	-0.1788947
-3.982633	commenced	-0.1787138
-3.982633	commencement	-1.165158
-3.982633	commences	-0.1789399
-3.982633	commenting	-0.3931739
-3.982633	commerce	-0.1789399
-3.982633	commingle	-0.1789399
-3.982633	commingled	-0.1789399
-3.982633	commingling	-0.1789399
-3.982633	common	-0.6206976
-3.982633	commoner	-0.1787591
-3.982633	commonest	-0.3094232
-3.982633	commonly	-0.2473764
-3.982633	commonness	-0.1788947
-3.982633	communicate	-0.1789399
-3.982633	communicated	-0.80371
-3.982633	communication	-0.1788947
-3.982633	communities	-0.1787138
-3.982633	community	-0.6749291
-3.982633	compact	-0.1789399
-3.982633	companion	-0.1789399
-3.982633	comparable	-0.1789399
-3.982633	comparative	-0.3094232
-3.982633	comparatively	-0.3548283
-3.982633	compare	-0.5660203
-3.982633	compared	-0.8371803
-3.982633	compares	-0.1788947
-3.982633	comparing	-0.5143012
-3.982633	comparison	-0.8102117
-3.982633	compass	-0.1789399
-3.982633	compatible	-0.5305604
-3.982633	compatriot	-0.1789399
-3.982633	compatriots	-0.1788947
-3.982633	compelled	-1.146083
-3.982633	compels	-0.1789399
-3.982633	compensate	-0.1789399
-3.982633	compensation	-0.2299359
-3.982633	compete	-1.178895
-3.982633	competed	-0.1789399
-3.982633	competent	-0.8736495
-3.982633	competing	-0.2728883
-3.982633	competition	-0.7467542
-3.982633	competitor	-0.1788495
-3.982633	competitors	-0.5186521
-3.982633	complained	-0.1789399
-3.982633	complemental	-0.1789399
-3.982633	complete	-0.3066012
-3.982633	completed	-0.2521548
-3.982633	completely	-0.2405171
-3.982633	completeness	-0.1789399
-3.982633	complex	-0.5219327
-3.982633	complexity	-0.2391378
-3.982633	complicated	-0.1786686
-3.982633	compose	-0.1789399
-3.982633	composed	-0.7582337
-3.982633	composition	-0.5305151
-3.982633	compositous	-0.1789399
-3.982633	compound	-0.3547158
-3.982633	compounded	-0.4125662
-3.982633	comprehend	-0.1788947
-3.982633	comprehension	-0.1789399
-3.982633	compressed	-0.1789399
-3.982633	compulsion	-0.1789399
-3.982633	compulsory	-0.4126566
-3.982633	comrades	-0.1789399
-3.982633	concave	-0.1789399
-3.982633	conceal	-0.1788495
-3.982633	concealed	-0.1788495
-3.982633	concealment	-0.1789399
-3.982633	conceivable	-0.4232499
-3.982633	conceive	-0.1787591
-3.982633	conceived	-0.1788947
-3.982633	conceiving	-0.1789399
-3.982633	concentrate	-0.1789399
-3.982633	concentrated	-0.1789399
-3.982633	concentrating	-0.1789399
-3.982633	concentration	-0.3931739
-3.982633	conception	-0.3094232
-3.982633	concern	-0.1789399
-3.982633	concerned	-0.847811
-3.982633	concerns	-0.7278696
-3.982633	conchologists	-0.3094232
-3.982633	conclude	-1.169095
-3.982633	concluded	-0.6116582
-3.982633	concludes	-0.4158125
-3.982633	concluding	-0.4839618
-3.982633	conclusion	-0.6948136
-3.982633	conclusions	-0.2878363
-3.982633	conclusive	-0.3931739
-3.982633	conclusively	-0.1789399
-3.982633	concourse	-0.1789399
-3.982633	concur	-0.3199604
-3.982633	concurred	-0.4126566
-3.982633	concurrence	-0.3931739
-3.982633	concurrent	-0.1788947
-3.982633	condensed	-0.3931739
-3.982633	condescended	-0.1789399
-3.982633	condition	-1.003812
-3.982633	condition!	-0.1789399
-3.982633	conditions	-1.041741
-3.982633	condor	-0.1788947
-3.982633	cone	-0.1789399
-3.982633	cones	-0.1788947
-3.982633	conferva	-0.1788947
-3.982633	confess	-0.3931739
-3.982633	confessed	-0.1788495
-3.982633	confessedly	-0.1789399
-3.982633	confidence	-0.4702552
-3.982633	confidently	-0.1787591
-3.982633	confine	-0.4559695
-3.982633	confined	-0.9212511
-3.982633	confinement	-0.5621798
-3.982633	confines	-0.5143012
-3.982633	confirm	-0.2728883
-3.982633	confirmation	-0.3094232
-3.982633	confirmed	-0.3931739
-3.982633	confluent	-0.1789399
-3.982633	conformable	-0.3931739
-3.982633	conformably	-0.1788947
-3.982633	conformity	-0.1788947
-3.982633	confounded	-0.3199604
-3.982633	confusion	-0.3094232
-3.982633	congener	-0.1789399
-3.982633	congeners	-0.1788947
-3.982633	conglomerate	-0.1789399
-3.982633	conglomerates	-0.1789399
-3.982633	congregate	-0.1789399
-3.982633	conical	-0.1789399
-3.982633	conjectural	-0.1788947
-3.982633	conjecture	-0.3003602
-3.982633	conjoined	-0.3094232
-3.982633	conjointly	-0.1788947
-3.982633	conjugate	-0.1789399
-3.982633	connect	-0.2389116
-3.982633	connected	-0.9274436
-3.982633	connecting	-0.4165317
-3.982633	connection	-0.3162985
-3.982633	connections	-0.1789399
-3.982633	connects	-0.2523357
-3.982633	connexion	-0.1788947
-3.982633	connoisseur	-0.1789399
-3.982633	conquer	-0.1788947
-3.982633	conquered	-0.4126566
-3.982633	conquering	-0.1789399
-3.982633	conqueror	-0.1789399
-3.982633	conscientious	-0.1789399
-3.982633	conscientiously	-0.1789399
-3.982633	conscious	-0.1788495
-3.982633	consecutive	-0.8319715
-3.982633	consequence	-0.3049489
-3.982633	consequences	-0.3931739
-3.982633	consequent	-0.1787138
-3.982633	consequently	-0.3855328
-3.982633	consider	-0.3835125
-3.982633	considerable	-0.3238198
-3.982633	considerably	-0.4574796
-3.982633	consideration	-0.4814291
-3.982633	considerations	-0.3236528
-3.982633	considered	-0.8701135
-3.982633	considering	-0.5598599
-3.982633	considers	-0.2880625
-3.982633	consist	-0.5934014
-3.982633	consisted	-0.1788043
-3.982633	consistent	-0.1789399
-3.982633	consisting	-0.4126566
-3.982633	consists	-0.911438
-3.982633	console	-0.1789399
-3.982633	consolidated	-0.1788947
-3.982633	consolidation	-0.3094232
-3.982633	conspicuous	-0.2299359
-3.982633	conspicuously	-0.1788495
-3.982633	constancy	-0.1788947
-3.982633	constant	-0.4682114
-3.982633	constantly	-0.2032534
-3.982633	constellations	-0.1789399
-3.982633	constitute	-0.3527626
-3.982633	constitutes	-0.1789399
-3.982633	constitution	-0.7240484
-3.982633	constitutional	-0.3287505
-3.982633	constitutions	-0.2299359
-3.982633	constrictor	-0.1789399
-3.982633	construct	-0.1789399
-3.982633	constructed	-0.3333709
-3.982633	construction	-0.7242681
-3.982633	consultation	-0.1789399
-3.982633	consulted	-0.1789399
-3.982633	consulting	-0.1789399
-3.982633	consumed	-0.2728883
-3.982633	consumption	-0.1789399
-3.982633	contact	-0.6116582
-3.982633	contain	-0.1788495
-3.982633	contained	-0.1788947
-3.982633	containing	-0.372928
-3.982633	contemplate	-0.1788947
-3.982633	contemporaneous	-0.1788043
-3.982633	contents	-0.1789399
-3.982633	contest	-0.1788495
-3.982633	continent	-0.7487019
-3.982633	continental	-0.2137895
-3.982633	continents	-0.3392693
-3.982633	contingencies	-0.3750868
-3.982633	contingency	-0.2728883
-3.982633	contingent	-0.1788495
-3.982633	continual	-0.1788947
-3.982633	continually	-0.2047275
-3.982633	continue	-0.4600624
-3.982633	continued	-0.3759876
-3.982633	continues	-0.1788495
-3.982633	continuing	-0.1788947
-3.982633	continuity	-0.3094232
-3.982633	continuous	-0.4543696
-3.982633	continuously	-0.3527626
-3.982633	contracted	-0.1788947
-3.982633	contraction	-0.1788495
-3.982633	contradictions	-0.1789399
-3.982633	contradistinction	-0.1789399
-3.982633	contrary	-0.7278696
-3.982633	contrast	-0.5143012
-3.982633	contrivance	-0.2611951
-3.982633	contrivances	-0.377272
-3.982633	controlled	-0.1789399
-3.982633	convalescence	-0.1789399
-3.982633	convenience	-0.2728883
-3.982633	convenience'	-0.5305604
-3.982633	convenient	-0.3094232
-3.982633	conveniently	-0.1789399
-3.982633	converge	-0.1788495
-3.982633	convergence	-0.1788947
-3.982633	converging	-0.1788947
-3.982633	converse	-0.1789399
-3.982633	conversed	-0.1789399
-3.982633	conversely	-0.3370644
-3.982633	conversion	-0.3094232
-3.982633	convert	-0.1788947
-3.982633	converted	-0.9627444
-3.982633	convex	-0.1788043
-3.982633	convey	-0.1789399
-3.982633	conviction	-0.1787138
-3.982633	convince	-0.1788043
-3.982633	convinced	-0.8896423
-3.982633	coo	-0.1789399
-3.982633	cooler	-0.1788043
-3.982633	coot	-0.1789399
-3.982633	coots	-0.1789399
-3.982633	coping	-0.1788947
-3.982633	copious	-0.1788947
-3.982633	coral	-0.1788043
-3.982633	coralline	-0.1789399
-3.982633	corallines	-0.1789399
-3.982633	corals	-0.1789399
-3.982633	corn	-0.1789399
-3.982633	corncrakes	-0.1789399
-3.982633	cornea	-0.1788947
-3.982633	corner	-0.6116582
-3.982633	corners	-0.3094232
-3.982633	corolla	-0.4099725
-3.982633	corollary	-0.1789399
-3.982633	corollas	-0.1789399
-3.982633	corporeal	-0.4592672
-3.982633	correct	-0.3818025
-3.982633	correction	-0.1788947
-3.982633	correctly	-0.1788947
-3.982633	correctness	-0.1789399
-3.982633	correlate	-0.1789399
-3.982633	correlated	-0.7728083
-3.982633	correlation	-0.5737374
-3.982633	correlations	-0.1788947
-3.982633	correspond	-0.1788043
-3.982633	correspondence	-0.1788947
-3.982633	corresponding	-0.4331914
-3.982633	correspondingly	-0.1789399
-3.982633	corresponds	-0.1789399
-3.982633	corroborate	-0.1789399
-3.982633	cosmogonists	-0.1789399
-3.982633	cotton	-0.1788947
